<?xml version="1.0"?>
<opencv_storage>
<opencv_ml_svm>
  <format>3</format>
  <svmType>C_SVC</svmType>
  <kernel>
    <type>LINEAR</type></kernel>
  <C>1.</C>
  <term_criteria><iterations>100</iterations></term_criteria>
  <var_count>324</var_count>
  <class_count>4</class_count>
  <class_labels type_id="opencv-matrix">
    <rows>4</rows>
    <cols>1</cols>
    <dt>i</dt>
    <data>
      0 1 2 3</data></class_labels>
  <sv_total>6</sv_total>
  <support_vectors>
    <_>
      -7.78248487e-03 -5.96368965e-03 -1.78455655e-02 0. -1.26402406e-02
      0. -2.08558086e-02 -6.96964702e-03 -7.78248487e-03 3.27192210e-02
      1.39166834e-02 4.16438654e-02 0. 9.35941041e-02 0. -2.42271200e-02
      -9.61638242e-03 3.27192210e-02 2.13986300e-02 6.54430536e-04
      1.95830967e-03 0. -8.51223916e-02 0. -4.48047854e-02
      -2.74678450e-02 2.13986300e-02 4.52147834e-02 -1.15109697e-01
      -1.25652745e-01 0. 1.39207393e-01 0. 7.78195634e-02 5.49182063e-03
      4.52147834e-02 3.17662880e-02 1.78316217e-02 5.33588231e-02 0.
      1.38469145e-01 0. 3.08171753e-02 1.02985688e-02 3.17662880e-02
      5.69334216e-02 2.83710100e-02 8.48966986e-02 0. 2.22667888e-01 0.
      1.76165447e-01 5.88713996e-02 5.69334216e-02 -1.49802029e-01
      -4.28218544e-02 -7.62602016e-02 0. 1.28632724e-01 0.
      4.86084595e-02 -6.69768685e-03 -1.49802029e-01 -1.07963003e-01
      -1.72092225e-02 -6.85655624e-02 0. 1.36611506e-01 0.
      1.44786030e-01 5.07627539e-02 -1.07963003e-01 1.37332361e-03
      -1.43277727e-03 -4.28721635e-03 0. 2.04907134e-01 0.
      1.46976799e-01 4.91170585e-02 1.37332361e-03 -3.40797156e-02
      -2.13957597e-02 -6.40240684e-02 0. -8.96980241e-02 0.
      -6.03050888e-02 -2.01529022e-02 -3.40797156e-02 6.83496818e-02
      -4.27346528e-02 -8.10649339e-03 0. 1.44191071e-01 0.
      8.93963501e-02 3.29331644e-02 6.83496818e-02 9.99564454e-02
      -1.12124555e-01 -1.57207176e-01 0. -1.16453893e-01 0.
      5.25574526e-03 -1.21698005e-03 9.99564454e-02 2.68482435e-02
      7.76623981e-03 2.32394654e-02 0. -3.36294584e-02 0.
      -2.41643190e-02 -1.82134602e-02 2.68482435e-02 8.45790282e-02
      -5.79138137e-02 -6.04700670e-02 0. -9.24340077e-03 0.
      -4.29433547e-02 -3.86756174e-02 8.45790282e-02 2.21464895e-02
      -2.94663571e-03 1.91264059e-02 0. 5.32612018e-03 0.
      -5.46228746e-03 -1.82540098e-03 2.21464895e-02 3.13865244e-02
      -3.29882316e-02 -1.99289247e-02 0. 9.04423445e-02 0.
      -2.14895010e-02 -2.25774422e-02 3.13865244e-02 6.24699239e-03
      -3.44284661e-02 -7.47653395e-02 0. 1.16081297e-01 0.
      1.08782458e-03 -1.03025632e-02 6.24699239e-03 -1.70172583e-02
      -6.56517502e-03 1.44265650e-03 0. 1.21618010e-01 0. 5.60047515e-02
      1.29309772e-02 -1.70172583e-02 -1.47753097e-02 -9.78758838e-03
      -1.14410622e-02 0. 1.79473326e-01 0. -1.07593937e-02
      -1.75172985e-02 -1.47753097e-02 -2.24263966e-02 7.83779752e-03
      5.30139580e-02 0. 1.36981010e-01 0. -7.00537860e-02
      -3.89399491e-02 -2.24263966e-02 9.06160474e-02 -3.48256715e-02
      -6.26776069e-02 0. -6.90535270e-03 0. -1.08883493e-02
      -5.75103750e-03 9.06160474e-02 1.22915283e-01 -3.05194650e-02
      -3.14143747e-02 0. -9.21357796e-02 0. 6.05551936e-02
      1.97786223e-02 1.22915283e-01 1.44822085e-02 3.76551109e-03
      8.39215424e-03 0. -1.45703824e-02 0. -1.21161871e-01
      -5.93174323e-02 1.44822085e-02 1.29240081e-01 2.91924160e-02
      6.16944320e-02 0. -1.21029273e-01 0. -2.35399120e-02
      -1.76613610e-02 1.29240081e-01 -5.70461676e-02 -3.61985229e-02
      -9.70984250e-02 0. -3.33705209e-02 0. -4.48261388e-02
      -3.05888914e-02 -5.70461676e-02 -6.68208674e-03 -6.24401029e-03
      -1.50142731e-02 0. 2.43981674e-01 0. 4.90983874e-02
      -1.20573640e-02 -6.68208674e-03 -3.10196858e-02 -3.60832317e-03
      -1.07974643e-02 0. -1.54585708e-02 0. -9.27986857e-03
      -3.10117519e-03 -3.10196858e-02 -2.28858590e-02 -1.29145361e-03
      -3.86452349e-03 0. 2.84765899e-01 0. 1.54001653e-01 5.76224923e-02
      -2.28858590e-02 -1.54895142e-01 -1.15602172e-03 1.47978663e-02 0.
      2.30804577e-01 0. 7.43083581e-02 2.19386462e-02 -1.54895142e-01
      -2.26141766e-01 -3.14568612e-03 -8.39642994e-03 0. 1.64123118e-01
      0. -6.86687455e-02 -4.54969332e-02 -2.26141766e-01 4.65534627e-02
      2.09820662e-02 6.27863407e-02 0. 2.65241832e-01 0. 1.48348123e-01
      5.94778433e-02 4.65534627e-02 5.51847070e-02 3.75811197e-02
      1.12457089e-01 0. 1.77562088e-01 0. 6.07683398e-02 2.00873483e-02
      5.51847070e-02 2.62616221e-02 -3.13082896e-02 -4.28406484e-02 0.
      1.70878604e-01 0. -1.32742003e-01 -5.94491623e-02 2.62616221e-02
      1.50293201e-01 -4.18429635e-03 2.23419652e-03 0. -1.69788569e-01
      0. -1.00328818e-01 -3.95280942e-02 1.50293201e-01 -6.86350325e-03
      1.83542594e-02 5.49229980e-02 0. 1.59213096e-01 0. -1.88117716e-02
      -8.07889178e-03 -6.86350325e-03 -3.29406746e-02 -2.15579718e-02
      -6.45096675e-02 0. -9.94011164e-02 0. -2.04422064e-02
      -6.83144294e-03 -3.29406746e-02</_>
    <_>
      0. -8.36210884e-03 -2.50225235e-02 0. -2.47391462e-02 0. 0. 0. 0.
      1.37630738e-02 -5.06536327e-02 -7.61348158e-02 0. 1.72701240e-01
      0. 1.63579844e-02 5.46657108e-03 1.37630738e-02 2.19255127e-02
      -6.35606796e-02 -1.84784815e-01 0. -1.35096908e-01 0.
      -7.22169578e-02 -2.43740175e-02 2.19255127e-02 1.00981608e-01
      -1.30315512e-01 -5.66023849e-02 0. 1.76848918e-01 0.
      3.71852107e-02 6.43467996e-04 1.00981608e-01 -6.06552847e-02
      -5.25725707e-02 -7.10476935e-02 0. 1.27050489e-01 0.
      5.65844923e-02 1.89095512e-02 -6.06552847e-02 -6.33965507e-02
      -2.28335820e-02 -6.82651177e-02 0. 1.25854626e-01 0.
      1.47334427e-01 4.92365696e-02 -6.33965507e-02 -5.93110034e-03
      -9.40533355e-02 -5.15682474e-02 0. 5.22791594e-02 0.
      1.06990233e-01 3.55214551e-02 -5.93110034e-03 -7.32271746e-02
      -8.38078782e-02 -1.77442133e-01 0. 7.18610138e-02 0.
      1.78674787e-01 6.06174059e-02 -7.32271746e-02 -8.23228359e-02
      1.70767400e-03 5.11013856e-03 0. 1.40404001e-01 0. 1.21050715e-01
      4.04530130e-02 -8.23228359e-02 -2.59690229e-02 0. 0. 0.
      -1.02398135e-01 0. -2.33710930e-02 -7.81021081e-03 -2.59690229e-02
      7.75523037e-02 -4.72489856e-02 -4.03488837e-02 0. -4.25973395e-03
      0. 2.61170026e-02 2.39017736e-02 7.75523037e-02 1.10195793e-01
      -2.29982436e-02 -6.74649701e-02 0. -2.20661253e-01 0.
      -4.76418510e-02 -4.11791503e-02 1.10195793e-01 5.29490411e-02
      -3.27696442e-03 -7.54551170e-03 0. -1.25222653e-01 0.
      -2.52466593e-02 -8.43698438e-03 5.29490411e-02 1.41188398e-01
      -4.50298339e-02 -6.32675886e-02 0. -3.01207602e-02 0.
      -1.34780541e-01 -4.50412892e-02 1.41188398e-01 1.09658249e-01
      2.09247116e-02 8.28754753e-02 0. -9.74800065e-02 0.
      -7.09456811e-03 -6.60896907e-03 1.09658249e-01 4.72344831e-02
      4.82491311e-03 2.91631687e-02 0. 8.94612807e-04 0. -1.19892649e-01
      -9.53247547e-02 4.72344831e-02 8.48812759e-02 -4.72228676e-02
      -1.15861744e-01 0. 8.37376937e-02 0. -8.83304421e-03
      -2.95182178e-03 8.48812759e-02 3.36243883e-02 -7.68711865e-02
      -1.16509952e-01 0. 3.42575498e-02 0. 1.05605960e-01 3.33850756e-02
      3.36243883e-02 -1.10531755e-06 -5.88673688e-02 -1.07795693e-01 0.
      1.27268359e-01 0. -7.94692859e-02 -3.25154029e-02 -1.10531755e-06
      1.53223136e-02 -8.85311812e-02 -8.12075287e-02 0. 3.67533825e-02
      0. 1.03960894e-02 3.47418478e-03 1.53223136e-02 7.93818757e-02
      -5.31685092e-02 -8.43487084e-02 0. -1.28403574e-01 0.
      -5.17364293e-02 -1.72894225e-02 7.93818757e-02 1.71647683e-01
      -5.20980870e-03 -1.55897448e-02 0. -1.74633220e-01 0.
      -9.04022809e-03 -3.02108820e-03 1.71647683e-01 7.71110356e-02
      -7.03532472e-02 -1.07554123e-01 0. -1.19870551e-01 0.
      -2.59676408e-02 -8.67795013e-03 7.71110356e-02 1.97183296e-01
      -1.85334007e-03 -1.38889179e-02 0. -1.58078209e-01 0.
      3.63337025e-02 1.21420827e-02 1.97183296e-01 4.22772802e-02
      -3.59108369e-03 -5.74982259e-03 0. -4.86899540e-02 0.
      -7.57946298e-02 -2.78108288e-02 4.22772802e-02 -5.24297841e-02
      -6.72607310e-03 -2.01272927e-02 0. 2.28283212e-01 0.
      1.52055193e-02 -1.12497553e-01 -5.24297841e-02 -1.74451228e-02
      -2.69162841e-03 -8.05437285e-03 0. -5.57949999e-03 0.
      -7.77330063e-03 -2.59770593e-03 -1.74451228e-02 -3.21938060e-02
      -1.49655633e-03 -4.47827158e-03 0. 2.82587886e-01 0.
      1.26845673e-01 4.66562882e-02 -3.21938060e-02 -1.00620739e-01
      -2.26191860e-02 -6.44770041e-02 0. 1.64324731e-01 0.
      2.88017187e-02 1.44075528e-02 -1.00620739e-01 -1.02128856e-01
      -5.47438785e-02 -3.61494198e-02 0. 4.84642945e-02 0.
      -2.72708596e-03 -9.11349838e-04 -1.02128856e-01 6.39228011e-03
      7.34027196e-03 2.19650138e-02 0. 1.39489904e-01 0. 1.12135217e-01
      4.43349257e-02 6.39228011e-03 -1.64058935e-02 -1.79374982e-02
      -3.32507445e-03 0. 9.82877910e-02 0. 2.74243695e-03 9.16475023e-04
      -1.64058935e-02 1.48012981e-01 -5.77669516e-02 -7.59367943e-02 0.
      -2.93151159e-02 0. -5.76615073e-02 -1.92694962e-02 1.48012981e-01
      2.26788655e-01 -1.63329523e-02 -4.72736470e-02 0. -1.41054586e-01
      0. -3.87412170e-03 -1.29466399e-03 2.26788655e-01 -7.72125125e-02
      -4.83909510e-02 -8.03323090e-02 0. 3.94826420e-02 0.
      -8.86202008e-02 -2.96153612e-02 -7.72125125e-02 -1.28616625e-02
      -2.24792026e-02 -6.72663376e-02 0. -7.07107186e-02 0.
      -4.11127927e-03 -1.37391733e-03 -1.28616625e-02</_>
    <_>
      -1.86500549e-02 -1.41844992e-02 -4.24452759e-02 0. -1.09078303e-01
      0. -1.33444667e-02 -4.45948960e-03 -1.86500549e-02 1.45706488e-02
      -7.57961720e-03 -2.21358128e-02 0. 1.19023345e-01 0.
      -2.46770307e-02 -8.24661460e-03 1.45706488e-02 6.89373538e-02
      -5.12881055e-02 -1.20005935e-01 0. -2.35247821e-01 0.
      -7.41686374e-02 -2.95026116e-02 6.89373538e-02 1.10832870e-01
      -6.64744377e-02 -1.02797672e-01 0. 5.79589047e-02 0.
      3.55698317e-02 -6.05796790e-03 1.10832870e-01 2.77647376e-02
      -4.48806863e-03 -1.29622426e-02 0. 1.35033965e-01 0.
      3.63052338e-02 1.21325795e-02 2.77647376e-02 -1.24514205e-02
      4.02163947e-03 1.20342979e-02 0. 1.71677560e-01 0. 1.03201106e-01
      3.44879515e-02 -1.24514205e-02 -8.65350887e-02 -8.56948495e-02
      -1.20797761e-01 0. 2.09604260e-02 0. -3.08858207e-03
      -1.78341977e-02 -8.65350887e-02 -7.73251355e-02 -6.22557802e-03
      -6.11944161e-02 0. 2.09604260e-02 0. 7.27689266e-02
      -6.45475881e-03 -7.73251355e-02 -5.11962026e-02 -2.46324833e-03
      -7.37084216e-03 0. 1.57729000e-01 0. 3.19180265e-02 1.06664002e-02
      -5.11962026e-02 -4.55721021e-02 -5.03381621e-03 -1.50630400e-02 0.
      -9.60669294e-02 0. -1.14619531e-01 -4.19110171e-02 -4.55721021e-02
      1.09530248e-01 1.44353826e-02 2.28397157e-02 0. -3.15788426e-02 0.
      -1.38207423e-02 -8.47223308e-03 1.09530248e-01 1.24300607e-01
      -1.35817630e-02 -4.06417474e-02 0. -1.12235211e-01 0.
      -6.67754337e-02 -4.96887602e-02 1.24300607e-01 9.97732356e-02
      5.37855038e-03 1.69307943e-02 0. -1.76497325e-01 0.
      -3.53886895e-02 -1.23193525e-02 9.97732356e-02 1.55057952e-01
      -3.72354425e-02 -7.73454532e-02 0. -1.03298962e-01 0.
      -6.99457005e-02 -2.86148135e-02 1.55057952e-01 1.48884058e-01
      3.84099260e-02 1.14936687e-01 0. -1.09002568e-01 0.
      -4.49781492e-02 -2.24855822e-02 1.48884058e-01 9.26847756e-02
      -7.21936580e-03 -1.60735548e-02 0. -6.34255931e-02 0.
      -1.34140685e-01 -5.41122481e-02 9.26847756e-02 9.64975134e-02
      -3.87256704e-02 -9.15201977e-02 0. 1.45670411e-03 0.
      -2.83180792e-02 -1.01960627e-02 9.64975134e-02 6.72113672e-02
      -1.93936154e-02 -4.43790071e-02 0. 6.36389188e-04 0.
      2.17179041e-02 2.91269901e-03 6.72113672e-02 7.90982544e-02
      -3.98681834e-02 -9.98238549e-02 0. 1.81660359e-03 0.
      -6.58994168e-02 -2.21528988e-02 7.90982544e-02 4.47003022e-02
      -5.32112457e-02 -6.83233812e-02 0. 1.75723177e-03 0.
      -8.70576277e-02 -3.92270721e-02 4.47003022e-02 1.22399665e-01
      -1.92734394e-02 -5.76732866e-02 0. -8.20185170e-02 0.
      -2.81821825e-02 -9.41801909e-03 1.22399665e-01 1.73468292e-01
      -1.58190522e-02 -3.68843153e-02 0. -9.43957642e-02 0.
      2.21416950e-02 7.39934528e-03 1.73468292e-01 4.20875996e-02
      -7.71886408e-02 -9.61994231e-02 0. -7.02572092e-02 0.
      -8.69884938e-02 -4.90274578e-02 4.20875996e-02 1.50541008e-01
      -4.51723523e-02 -3.54882516e-02 0. -1.41739503e-01 0.
      -1.96486488e-02 -1.60637386e-02 1.50541008e-01 7.60972798e-02
      1.67564135e-02 5.01413755e-02 0. -8.32099542e-02 0.
      -1.30364269e-01 -6.01319894e-02 7.60972798e-02 5.23582064e-02
      -2.64093615e-02 -6.83129504e-02 0. 9.42066163e-02 0.
      -3.08722313e-02 -7.98502192e-02 5.23582064e-02 -5.82257845e-03 0.
      0. 0. -3.00415941e-02 0. -4.06661518e-02 -1.35899466e-02
      -5.82257845e-03 -3.21524218e-02 -1.22897457e-02 -3.67755853e-02 0.
      1.93652883e-01 0. 4.05277163e-02 -7.68612931e-03 -3.21524218e-02
      -1.01047959e-02 -3.01635787e-02 -4.72214185e-02 0. 1.07479058e-01
      0. -4.25003022e-02 -1.58816800e-02 -1.01047959e-02 -9.22321007e-02
      -4.68976386e-02 -6.57584518e-02 0. 8.38090777e-02 0.
      -9.36245546e-02 -7.91443810e-02 -9.22321007e-02 1.56671666e-02
      -1.51350535e-02 -6.30100071e-03 0. 2.01739714e-01 0.
      1.98436286e-02 1.16032781e-02 1.56671666e-02 -2.79858746e-02
      1.37971696e-02 5.71194924e-02 0. 2.10864082e-01 0. -6.19373191e-03
      -1.97132062e-02 -2.79858746e-02 5.02589978e-02 -1.12440869e-01
      -4.87286150e-02 0. 1.14728086e-01 0. -9.37714726e-02
      -4.27106321e-02 5.02589978e-02 1.34228379e-01 -9.54333916e-02
      -1.23781458e-01 0. -9.83372033e-02 0. -2.99831498e-02
      -1.41459173e-02 1.34228379e-01 -6.78297728e-02 4.70351661e-03
      1.40836891e-02 0. 2.07052439e-01 0. -3.98978367e-02
      -1.33331893e-02 -6.78297728e-02 -3.37760597e-02 -2.82052066e-02
      -8.12529325e-02 0. -3.92341353e-02 0. -8.05158261e-03
      -2.69070244e-03 -3.37760597e-02</_>
    <_>
      4.56299335e-02 9.64809395e-03 2.88706534e-02 0. 9.96692479e-03 0.
      8.57521519e-02 2.86568701e-02 4.56299335e-02 4.21586409e-02
      -1.02454364e-01 -2.09845155e-01 0. 1.34410501e-01 0.
      1.16225541e-01 4.51977476e-02 4.21586409e-02 -2.87165135e-01
      -7.89828151e-02 -4.70536858e-01 0. -1.54745638e-01 0.
      -2.99476951e-01 -5.14338762e-02 -2.87165135e-01 1.04677804e-01
      4.72075902e-02 3.85053992e-01 0. 9.33452770e-02 0. -2.85013556e-01
      -2.74997242e-02 1.04677804e-01 -8.16590413e-02 -1.10682398e-01
      -2.25482419e-01 0. 1.07664682e-01 0. 8.72849077e-02 2.91690659e-02
      -8.16590413e-02 -2.48002157e-01 -1.17759205e-01 -3.15868616e-01 0.
      -3.93595695e-02 0. -8.15909058e-02 -2.72662845e-02 -2.48002157e-01
      3.64908665e-01 2.53823511e-02 3.02796334e-01 0. 1.38707206e-01 0.
      7.81274438e-02 1.18546411e-01 3.64908665e-01 1.00638628e-01
      -4.01981831e-01 -2.54237086e-01 0. -7.61193037e-02 0.
      -1.33760525e-02 -4.04963195e-02 1.00638628e-01 -2.01790571e-01
      4.26101265e-03 3.53282988e-02 0. -1.85466893e-02 0.
      -1.56819016e-01 -5.25243729e-02 -2.01790571e-01 3.50899585e-02
      4.77556325e-02 1.42902538e-01 0. 2.67645977e-02 0. -7.14814216e-02
      -2.38878541e-02 3.50899585e-02 -2.16276068e-02 -1.07828772e-03
      2.22275145e-02 0. -2.52749085e-01 0. -8.64047632e-02
      -1.16897384e-02 -2.16276068e-02 -3.13582458e-02 2.52047122e-01
      1.93587124e-01 0. -1.05679452e-01 0. -1.44560099e-01
      -8.97175074e-02 -3.13582458e-02 3.20526329e-03 1.30354716e-02
      -5.14585972e-02 0. -2.27893054e-01 0. -9.29912999e-02
      1.13222655e-02 3.20526329e-03 1.30400807e-01 3.23785655e-02
      1.27450258e-01 0. 1.01443995e-02 0. -1.30621374e-01 5.54484725e-02
      1.30400807e-01 2.31867716e-01 8.88722483e-03 1.77113652e-01 0.
      -2.23253846e-01 0. -6.31129965e-02 -8.93309638e-02 2.31867716e-01
      1.80690456e-02 4.81642149e-02 1.59589261e-01 0. -2.73873419e-01 0.
      -2.55507857e-01 -1.18745245e-01 1.80690456e-02 1.77850217e-01
      4.40645628e-02 1.40826806e-01 0. -6.95400983e-02 0.
      -1.00415116e-02 4.12505157e-02 1.77850217e-01 2.01190606e-01
      -1.37233436e-01 -2.39001244e-01 0. -1.97846472e-01 0.
      2.33985987e-02 9.76030715e-03 2.01190606e-01 3.14662196e-02
      -1.66190807e-02 -1.35889083e-01 0. -1.79088175e-01 0.
      -4.13488634e-02 3.71016823e-02 3.14662196e-02 1.20766714e-01
      -1.98757350e-01 -3.12701941e-01 0. -2.15341568e-01 0.
      1.77279025e-01 1.23114921e-01 1.20766714e-01 1.75792843e-01
      -1.04570925e-01 -1.63572043e-01 0. -3.20174754e-01 0.
      4.82111126e-02 2.40483806e-02 1.75792843e-01 5.88101521e-02
      7.90345818e-02 -3.15174311e-02 0. -1.70746997e-01 0.
      -5.58354110e-02 -1.93186235e-02 5.88101521e-02 2.03311309e-01
      -1.55000404e-01 -2.76171654e-01 0. -3.45452875e-01 0.
      2.60457575e-01 1.54899821e-01 2.03311309e-01 6.28359467e-02
      -3.66882086e-02 -1.37713522e-01 0. -7.20428750e-02 0.
      7.54702389e-02 6.53041899e-02 6.28359467e-02 2.05360621e-01
      1.09589465e-01 3.33830804e-01 0. -8.47445205e-02 0.
      -1.66028276e-01 -5.92064299e-02 2.05360621e-01 -5.56009375e-02
      5.64591326e-02 1.49521098e-01 0. -1.78581387e-01 0.
      -3.15428764e-01 -1.05154522e-01 -5.56009375e-02 -7.88053945e-02
      -3.03403824e-03 -9.07895155e-03 0. -2.67126765e-02 0.
      -6.01408221e-02 -2.00980455e-02 -7.88053945e-02 -1.66250229e-01
      3.60093522e-03 -1.30549364e-03 0. 2.82431766e-02 0.
      -3.92112471e-02 -1.31037375e-02 -1.66250229e-01 -5.24894856e-02
      -2.29599606e-02 -1.95175007e-01 0. -1.03477694e-01 0.
      -4.01575603e-02 2.75484771e-02 -5.24894856e-02 1.40394136e-01
      4.11944389e-02 -1.57114491e-01 0. -2.42267121e-02 0.
      2.55523771e-01 1.42774552e-01 1.40394136e-01 -1.34661093e-01
      -1.69301759e-02 -5.06614484e-02 0. -1.15204245e-01 0.
      -3.63868885e-02 -1.21598896e-02 -1.34661093e-01 4.44157794e-02
      8.51455843e-04 2.54759099e-03 0. -3.99781168e-02 0. 1.96312256e-02
      -2.55447254e-02 4.44157794e-02 1.94930047e-01 2.64997154e-01
      2.11813748e-02 0. -3.64371508e-01 0. 1.75901547e-01 2.64023710e-02
      1.94930047e-01 -5.71049228e-02 3.51069169e-03 -1.71051860e-01 0.
      -3.05130072e-02 0. 3.83879840e-02 1.69318598e-02 -5.71049228e-02
      4.14167158e-02 -5.63378958e-03 -8.74216575e-03 0. -1.94324896e-01
      0. -1.03323154e-01 -9.51628163e-02 4.14167158e-02 4.25386839e-02
      3.27260159e-02 9.79287103e-02 0. -2.87628472e-02 0.
      -6.44939244e-02 -2.39370465e-02 4.25386839e-02</_>
    <_>
      -2.08585244e-02 -3.28908227e-02 -9.81500372e-02 0. -2.17625529e-01
      0. 1.08727179e-01 3.63347270e-02 -2.08585244e-02 5.31591568e-03
      -6.99733421e-02 -1.67819828e-01 0. 4.65017743e-02 0.
      1.75365061e-01 6.76344559e-02 5.31591568e-03 9.41987056e-03
      -1.15891501e-01 -2.11841270e-01 0. -2.71001071e-01 0.
      -6.13473952e-02 4.27624956e-02 9.41987056e-03 8.27597305e-02
      5.24796918e-02 -1.80534367e-02 0. -4.79584113e-02 0.
      -6.34355173e-02 4.77457233e-02 8.27597305e-02 -2.41601299e-02
      -6.49590939e-02 -1.90874174e-01 0. 5.32238074e-02 0.
      1.44347474e-01 4.82383892e-02 -2.41601299e-02 -4.17065807e-02
      -1.08293341e-02 -3.24053839e-02 0. 1.41448611e-02 0.
      -3.89781259e-02 -1.30258398e-02 -4.17065807e-02 2.97926664e-02
      -1.48845673e-01 -1.06745511e-01 0. -9.80452523e-02 0.
      -5.75715192e-02 7.27247894e-02 2.97926664e-02 -5.76104335e-02
      9.97417979e-03 -5.86085441e-03 0. -2.48410046e-01 0.
      -2.08544940e-01 -1.73910782e-01 -5.76104335e-02 -4.55720872e-02
      2.00526379e-02 6.00049682e-02 0. -4.87779416e-02 0.
      -1.22966737e-01 -4.10933718e-02 -4.55720872e-02 -4.66968417e-02
      2.69407872e-02 8.06168914e-02 0. 1.94577186e-03 0. -9.47156549e-02
      -3.16523425e-02 -4.66968417e-02 1.63564652e-01 1.59233004e-01
      1.11490838e-01 0. -4.19069380e-01 0. -9.72046927e-02
      -1.03001595e-01 1.63564652e-01 -2.97532640e-02 2.00586274e-01
      2.31203213e-01 0. -1.16883144e-01 0. -2.08803132e-01
      -2.35129580e-01 -2.97532640e-02 1.02456793e-01 1.31520061e-02
      -1.22551136e-02 0. -3.28369737e-01 0. -6.04407676e-02
      3.75378504e-02 1.02456793e-01 1.10501789e-01 1.32362393e-03
      -6.04981109e-02 0. -1.78378522e-01 0. -1.22206353e-01
      8.53578672e-02 1.10501789e-01 2.08137870e-01 7.53298849e-02
      1.97284475e-01 0. -3.14321965e-01 0. -1.07345000e-01
      -7.58168101e-02 2.08137870e-01 -9.56790708e-03 -1.49328690e-02
      -1.62834860e-02 0. -2.50728637e-01 0. -1.28559127e-01
      3.70094483e-03 -9.56790708e-03 1.64498702e-01 -5.11931144e-02
      -1.22906975e-01 0. -1.35792702e-01 0. -5.15655689e-02
      4.44283187e-02 1.64498702e-01 2.19678551e-01 -2.13292446e-02
      -8.30126479e-02 0. -2.62366474e-01 0. -1.00127734e-01
      -2.21456438e-02 2.19678551e-01 7.47097284e-02 -7.75744766e-02
      -1.64899111e-01 0. -3.24063092e-01 0. -1.32234529e-01
      3.28775197e-02 7.47097284e-02 1.41233027e-01 -6.60642385e-02
      -1.60466611e-01 0. -2.81697512e-01 0. -5.13039492e-02
      -4.14019898e-02 1.41233027e-01 1.68240190e-01 4.79250737e-02
      7.25060552e-02 0. -2.00899705e-01 0. -6.90879449e-02
      -1.70549043e-02 1.68240190e-01 6.94162995e-02 3.83768789e-02
      2.27355938e-02 0. -1.21692255e-01 0. -2.48764560e-01
      -8.87447149e-02 6.94162995e-02 1.44678161e-01 -1.17794134e-01
      -1.78918034e-01 0. -1.40715078e-01 0. 3.55745405e-02
      5.25806472e-02 1.44678161e-01 5.39227910e-02 -1.58590078e-01
      -2.20204204e-01 0. -6.16838746e-02 0. -3.54748107e-02
      1.28844976e-02 5.39227910e-02 4.68410403e-02 1.10769629e-01
      3.07651252e-01 0. -1.07720710e-01 0. -2.73448735e-01
      -1.17094167e-01 4.68410403e-02 -1.11720040e-01 -6.53946847e-02
      -4.90560159e-02 0. -1.85648948e-01 0. -1.15284987e-01
      1.00879766e-01 -1.11720040e-01 7.94335734e-04 -2.76945037e-04
      -8.28735065e-04 0. -1.65825095e-02 0. -4.97320518e-02
      -1.66196208e-02 7.94335734e-04 -6.36396483e-02 -2.63769142e-02
      -6.28999397e-02 0. 4.13588155e-03 0. -3.85625549e-02
      -1.28869647e-02 -6.36396483e-02 3.84922847e-02 -7.06943870e-02
      -6.19239248e-02 0. -1.04175948e-01 0. -2.19858408e-01
      -3.51433493e-02 3.84922847e-02 8.87320861e-02 3.39496508e-02
      -2.95387078e-02 0. 3.04897036e-02 0. -9.20553729e-02
      -1.02277003e-01 8.87320861e-02 -5.04971035e-02 -3.39331962e-02
      -8.45215991e-02 0. 2.94362176e-02 0. -8.47136229e-02
      -2.83098780e-02 -5.04971035e-02 -1.88301399e-01 3.50381620e-02
      1.04847364e-01 0. 2.61827946e-01 0. -7.36064836e-03
      -2.28755213e-02 -1.88301399e-01 -6.90662265e-02 -8.20838660e-02
      -4.70449291e-02 0. 8.18267986e-02 0. 6.17950298e-02 1.09972246e-02
      -6.90662265e-02 -1.14506163e-01 -2.37562075e-01 -3.02571058e-01 0.
      1.06333129e-01 0. 7.45214149e-02 2.72575188e-02 -1.14506163e-01
      -1.84989408e-01 3.47437151e-02 1.03977337e-01 0. 2.72600561e-01 0.
      6.24350011e-02 3.15120593e-02 -1.84989408e-01 8.60315561e-03
      -2.26264335e-02 -6.38309121e-02 0. 2.41199926e-01 0.
      4.44589593e-02 1.48574458e-02 8.60315561e-03</_>
    <_>
      9.40830335e-02 -3.29733975e-02 -9.86024886e-02 0. -9.73821525e-03
      0. 2.89996620e-02 9.69117135e-03 9.40830335e-02 1.31637320e-01
      2.05804389e-02 -5.70606217e-02 0. 3.29133049e-02 0. 1.79618336e-02
      6.00257562e-03 1.31637320e-01 9.17463303e-02 -8.93950611e-02
      4.85530868e-02 0. -3.59531969e-01 0. 6.27019107e-02 1.70988925e-02
      9.17463303e-02 5.62562793e-02 4.85094152e-02 -7.74367899e-02 0.
      -1.85920328e-01 0. 6.54705986e-02 3.05649508e-02 5.62562793e-02
      2.45693415e-01 1.10033989e-01 1.82596803e-01 0. -2.05015633e-02 0.
      5.11821127e-03 1.71043549e-03 2.45693415e-01 1.93211019e-01
      1.21397495e-01 5.50577819e-01 0. 2.96163671e-02 0. -1.53026700e-01
      -5.11390381e-02 1.93211019e-01 -4.41556126e-01 -4.62000957e-03
      -1.67519584e-01 0. -1.62551086e-02 0. -2.09934652e-01
      -1.05796710e-01 -4.41556126e-01 -2.44668379e-01 2.57196784e-01
      4.27074313e-01 0. -1.84514493e-01 0. -4.53805566e-01
      -1.39542028e-01 -2.44668379e-01 2.11320564e-01 2.06124075e-02
      4.25954089e-02 0. -4.01935503e-02 0. -2.65320372e-02
      -8.86669196e-03 2.11320564e-01 -8.98657292e-02 -2.40470450e-02
      -7.19575807e-02 0. -2.07269371e-01 0. -2.38305449e-01
      -1.03013791e-01 -8.98657292e-02 1.77119985e-01 1.96167141e-01
      2.30590373e-01 0. -2.19691977e-01 0. -3.06319237e-01
      -1.66115656e-01 1.77119985e-01 1.60070956e-01 7.46427253e-02
      1.44807786e-01 0. 3.63585204e-02 0. -2.13511899e-01
      -2.04620719e-01 1.60070956e-01 2.63711642e-02 1.56446189e-01
      3.08163434e-01 0. -1.97865650e-01 0. 6.39266670e-02 2.13632584e-02
      2.63711642e-02 1.78540479e-02 7.00155124e-02 7.03980848e-02 0.
      -2.17179850e-01 0. -1.02431532e-02 -6.69716485e-03 1.78540479e-02
      1.66686252e-02 2.53158957e-01 2.55655766e-01 0. 5.40812686e-02 0.
      5.82593195e-02 8.08809847e-02 1.66686252e-02 1.75524250e-01
      -1.16100661e-01 -1.22468479e-01 0. -2.11850956e-01 0.
      -1.92332566e-01 1.18607953e-01 1.75524250e-01 -1.27949744e-01
      -1.84357241e-01 -3.71198177e-01 0. 1.30611777e-01 0.
      6.22784197e-02 1.87342074e-02 -1.27949744e-01 -1.55782700e-01
      9.23243091e-02 1.48252815e-01 0. 1.03656575e-01 0. 1.17603548e-01
      8.21782649e-02 -1.55782700e-01 2.01804399e-01 -1.93525478e-01
      -1.37697875e-01 0. -1.19755410e-01 0. -1.28658712e-02
      3.72614502e-03 2.01804399e-01 -1.41604722e-01 1.26013547e-01
      9.50870141e-02 0. 9.24961194e-02 0. -3.46879095e-01
      -1.46801427e-01 -1.41604722e-01 4.38134111e-02 2.13638917e-01
      2.69517243e-01 0. 8.56063981e-03 0. -4.76873741e-02
      -1.75231714e-02 4.38134111e-02 8.98713022e-02 6.66644946e-02
      1.57690808e-01 0. 1.04106456e-01 0. -1.59201279e-01
      -6.40005171e-02 8.98713022e-02 -2.06044808e-01 -1.09347561e-03
      -3.19521874e-02 0. 7.04383478e-02 0. -1.26798302e-01
      -5.82831353e-02 -2.06044808e-01 -3.73274647e-02 -1.07612222e-01
      -1.49177462e-01 0. -7.42016137e-02 0. -2.20647100e-02
      -1.50320521e-02 -3.73274647e-02 -8.13776478e-02 5.57815954e-02
      6.76658526e-02 0. -1.43008068e-01 0. -7.95862526e-02
      3.86850871e-02 -8.13776478e-02 3.08434039e-01 -2.15427324e-01
      -7.46810287e-02 0. -6.30136371e-01 0. -1.74673438e-01
      7.07799718e-02 3.08434039e-01 1.92921847e-01 2.05159560e-02
      6.13913797e-02 0. 1.80859193e-02 0. 1.34565741e-01 8.01497325e-02
      1.92921847e-01 2.14407071e-01 -2.61773728e-02 -5.81941269e-02 0.
      -2.78980583e-01 0. 3.58051583e-02 -6.65373877e-02 2.14407071e-01
      1.67570785e-01 3.11289877e-02 2.76683383e-02 0. -3.02133024e-01 0.
      -3.31912011e-01 -1.76595613e-01 1.67570785e-01 -1.70410827e-01
      2.00158671e-01 -7.94385076e-02 0. 6.28765598e-02 0.
      -4.03657138e-01 -3.66975725e-01 -1.70410827e-01 2.39925355e-01
      5.56533746e-02 2.12656036e-01 0. 1.34541631e-01 0. -3.12043190e-01
      -1.04279622e-01 2.39925355e-01 -2.28634074e-01 2.03467354e-01
      5.43408573e-01 0. 3.88350993e-01 0. 1.07121533e-02 -7.82957599e-02
      -2.28634074e-01 -4.21194941e-01 -1.82428360e-01 1.51408568e-01 0.
      2.75694698e-01 0. -9.70212626e-04 -1.26188574e-02 -4.21194941e-01
      -1.55635998e-01 -3.38937670e-01 -2.71156430e-01 0. -4.96909954e-02
      0. 1.63689822e-01 6.79654554e-02 -1.55635998e-01 -2.11315915e-01
      1.45829156e-01 3.90861422e-01 0. 6.09641731e-01 0. 2.28981063e-01
      9.04913247e-02 -2.11315915e-01 -5.91190159e-02 -4.93914895e-02
      -1.41446337e-01 0. 1.74212515e-01 0. 8.90453011e-02 2.99710557e-02
      -5.91190159e-02</_></support_vectors>
  <uncompressed_sv_total>42</uncompressed_sv_total>
  <uncompressed_support_vectors>
    <_>
      0. 0. 0. 0. 0. 0. 0. 0. 0. 0. 0. 0. 0. 0. 0. 0. 0. 0.
      4.88398701e-01 4.46192622e-02 1.33517340e-01 0. 1.27329886e-01 0.
      0. 0. 4.88398701e-01 4.88398701e-01 2.02814825e-02 6.06896989e-02
      0. 2.93838196e-02 0. 0. 0. 4.88398701e-01 0. 0. 0. 0. 0. 0. 0. 0.
      0. 0. 0. 0. 0. 0. 0. 0. 0. 0. 4.73673731e-01 0. 0. 0. 0. 0.
      4.37859967e-02 1.46325119e-02 4.73673731e-01 4.73673731e-01 0. 0.
      0. 0. 0. 2.93358982e-01 9.80354175e-02 4.73673731e-01 0. 0. 0. 0.
      0. 0. 0. 0. 0. 0. 0. 0. 0. 0. 0. 0. 0. 0. 4.74116862e-01 0. 0. 0.
      0. 0. 2.94043303e-01 9.82641205e-02 4.74116862e-01 4.74116862e-01
      0. 0. 0. 0. 0. 0. 0. 4.74116862e-01 3.17867905e-01 2.25064587e-02
      6.73476532e-02 0. 1.15766391e-01 0. 6.71578348e-02 2.24430263e-02
      3.17867905e-01 3.41395587e-01 1.02302097e-02 3.06125674e-02 0.
      2.67153196e-02 0. 1.12424254e-01 3.75703089e-02 3.41395587e-01
      3.19506675e-01 1.75050218e-02 5.23815043e-02 0. 1.16219439e-01 0.
      9.83353257e-02 3.28620225e-02 3.19506675e-01 3.41395587e-01
      7.95682892e-03 2.38097757e-02 0. 2.68198699e-02 0. 2.24873424e-01
      7.51489401e-02 3.41395587e-01 3.37629765e-01 0. 0. 0. 0. 0.
      5.20989262e-02 1.74105745e-02 3.37629765e-01 3.37629765e-01
      3.04901716e-03 9.12382267e-03 0. 0. 0. 1.49081886e-01
      4.98205647e-02 3.37629765e-01 3.37629765e-01 0. 0. 0. 0. 0.
      8.82537365e-02 2.94929110e-02 3.37629765e-01 3.37629765e-01
      1.32124070e-02 3.95365618e-02 0. 0. 0. 2.04437047e-01
      6.83193654e-02 3.37629765e-01 2.86281675e-01 1.27875516e-02
      3.82652320e-02 0. 0. 0. 1.21433660e-01 4.05810475e-02
      2.86281675e-01 2.86281675e-01 1.99092533e-02 5.95760792e-02 0.
      4.55499068e-02 0. 1.34120494e-01 4.48207483e-02 2.86281675e-01
      2.86281675e-01 5.54127172e-02 1.65815979e-01 0. 0. 0.
      2.86281675e-01 9.62082967e-02 2.86281675e-01 2.86281675e-01
      8.62734243e-02 2.58163005e-01 0. 1.00209787e-01 0. 2.86281675e-01
      9.78473574e-02 2.86281675e-01 3.97129774e-01 0. 0. 0.
      9.17308703e-02 0. 1.62032872e-01 5.41486815e-02 3.97129774e-01
      4.53043699e-01 0. 0. 0. 2.11686622e-02 0. 4.53043699e-01
      1.62035108e-01 4.53043699e-01 0. 0. 0. 0. 0. 0. 0. 0. 0. 0. 0. 0.
      0. 0. 0. 0. 0. 0. 4.64423329e-01 0. 0. 0. 0. 0. 1.25462547e-01
      4.19274867e-02 4.64423329e-01 4.64423329e-01 3.70147787e-02
      1.10762328e-01 0. 0. 0. 3.02116841e-01 1.00962393e-01
      4.64423329e-01 0. 0. 0. 0. 0. 0. 0. 0. 0. 0. 0. 0. 0. 0. 0. 0. 0.
      0. 3.40109766e-01 1.03965722e-01 3.11105102e-01 0. 0. 0.
      3.40109766e-01 1.47499248e-01 3.40109766e-01 3.40109766e-01
      1.61866784e-01 3.40109766e-01 0. 1.14036418e-01 0. 3.40109766e-01
      1.35361269e-01 3.40109766e-01 0. 0. 0. 0. 0. 0. 0. 0. 0. 0. 0. 0.
      0. 0. 0. 0. 0. 0.</_>
    <_>
      0. 0. 0. 0. 0. 0. 0. 0. 0. 0. 0. 0. 0. 0. 0. 0. 0. 0.
      4.03679907e-01 5.68088815e-02 1.69993192e-01 0. 2.50472546e-01 0.
      2.23876759e-01 7.48157650e-02 4.03679907e-01 4.03679907e-01
      2.58222185e-02 7.72696361e-02 0. 5.78013584e-02 0. 4.03679907e-01
      1.43603668e-01 4.03679907e-01 0. 0. 0. 0. 0. 0. 0. 0. 0. 0. 0. 0.
      0. 0. 0. 0. 0. 0. 4.93591279e-01 0. 0. 0. 0. 0. 1.35931462e-01
      4.54259068e-02 4.93591279e-01 4.93591279e-01 0. 0. 0. 0. 0. 0. 0.
      4.93591279e-01 0. 0. 0. 0. 0. 0. 0. 0. 0. 0. 0. 0. 0. 0. 0. 0. 0.
      0. 4.71634388e-01 0. 0. 0. 0. 0. 4.54837792e-02 1.51998820e-02
      4.71634388e-01 4.71634388e-01 0. 0. 0. 0. 0. 3.04733843e-01
      1.01836704e-01 4.71634388e-01 2.65928060e-01 2.51472201e-02
      7.52497911e-02 0. 1.36248171e-01 0. 2.31651336e-01 7.74139464e-02
      2.65928060e-01 3.14672709e-01 1.14305541e-02 3.42044458e-02 0.
      3.14418897e-02 0. 3.14672709e-01 1.14934310e-01 3.14672709e-01
      2.06837654e-01 1.14305541e-02 3.42044458e-02 0. 8.27748254e-02 0.
      2.17880115e-01 7.28118792e-02 2.06837654e-01 3.14672709e-01
      5.19570708e-03 1.55474767e-02 0. 1.91018842e-02 0. 3.14672709e-01
      1.19042702e-01 3.14672709e-01 3.41849297e-01 3.49762756e-03
      1.04662348e-02 0. 0. 0. 8.97783265e-02 3.00023798e-02
      3.41849297e-01 3.41849297e-01 2.34335288e-02 7.01220632e-02 0. 0.
      0. 1.88388955e-02 6.29564514e-03 3.41849297e-01 3.41849297e-01
      7.69478036e-03 2.30257157e-02 0. 0. 0. 1.26532555e-01
      4.22850475e-02 3.41849297e-01 3.41849297e-01 5.15537634e-02
      1.54268533e-01 0. 0. 0. 4.14455757e-02 1.38504170e-02
      3.41849297e-01 3.12050194e-01 1.35924574e-02 4.06738184e-02 0. 0.
      0. 8.80771950e-02 2.94339042e-02 3.12050194e-01 3.12050194e-01
      1.29953707e-02 3.88871059e-02 0. 7.20581934e-02 0. 2.35546261e-01
      7.87154511e-02 3.12050194e-01 3.12050194e-01 2.99034063e-02
      8.94823968e-02 0. 0. 0. 1.60432011e-01 5.36136702e-02
      3.12050194e-01 3.12050194e-01 2.85898149e-02 8.55516344e-02 0.
      1.19597919e-01 0. 2.66426623e-01 8.90351683e-02 3.12050194e-01
      3.34991962e-01 0. 0. 0. 0. 0. 2.33291149e-01 7.79620036e-02
      3.34991962e-01 4.72690493e-01 0. 0. 0. 0. 0. 4.72690493e-01
      2.00069234e-01 4.72690493e-01 0. 0. 0. 0. 0. 0. 0. 0. 0. 0. 0. 0.
      0. 0. 0. 0. 0. 0. 4.53602642e-01 1.56042604e-02 4.66939025e-02 0.
      0. 0. 2.19111264e-01 7.32233152e-02 4.53602642e-01 4.53602642e-01
      1.04545988e-01 3.12841475e-01 0. 0. 0. 8.40475634e-02
      2.80872900e-02 4.53602642e-01 0. 0. 0. 0. 0. 0. 0. 0. 0. 0. 0. 0.
      0. 0. 0. 0. 0. 0. 4.25112307e-01 6.01441339e-02 1.79974198e-01 0.
      0. 0. 2.85960525e-01 9.55632254e-02 4.25112307e-01 4.25112307e-01
      5.75021468e-02 1.72068343e-01 0. 1.97220668e-01 0. 2.58261144e-01
      8.63064826e-02 4.25112307e-01 0. 0. 0. 0. 0. 0. 0. 0. 0. 0. 0. 0.
      0. 0. 0. 0. 0. 0.</_>
    <_>
      0. 0. 0. 0. 0. 0. 0. 0. 0. 8.85637254e-02 3.66554298e-02
      1.09686606e-01 0. 5.03493905e-01 0. 5.65002039e-02 1.88813768e-02
      8.85637254e-02 2.39448454e-02 2.99859606e-02 8.97290781e-02 0.
      1.46433180e-02 0. 0. 0. 2.39448454e-02 1.33281708e-01
      3.87474686e-01 5.03493905e-01 0. 5.03493905e-01 0. 7.26431161e-02
      2.42760554e-02 1.33281708e-01 8.27155039e-02 2.60029081e-02
      7.78103247e-02 0. 4.13767070e-01 0. 6.99779987e-02 2.33854186e-02
      8.27155039e-02 2.82930825e-02 2.69006621e-02 8.04967284e-02 0.
      2.13936925e-01 0. 3.18081789e-02 1.06297359e-02 2.82930825e-02
      7.24515542e-02 1.93345115e-01 4.25580800e-01 0. 4.25580800e-01 0.
      8.99717212e-02 3.00669670e-02 7.24515542e-02 2.20057275e-02
      1.18033290e-01 3.53199571e-01 0. 4.25580800e-01 0. 5.28261401e-02
      1.76535808e-02 2.20057275e-02 6.05585538e-02 7.77474791e-02
      2.32649297e-01 0. 1.97778866e-01 0. 7.58237243e-02 2.53389571e-02
      6.05585538e-02 7.78610036e-02 5.91017492e-02 1.76854417e-01 0.
      2.79601991e-01 0. 1.66812181e-01 5.57457022e-02 7.78610036e-02
      3.67911309e-02 2.55648136e-01 3.76818150e-01 0. 3.76818150e-01 0.
      9.51266587e-02 3.17896791e-02 3.67911309e-02 4.73028794e-02
      2.09331602e-01 3.76818150e-01 0. 3.76818150e-01 0. 1.71851069e-01
      5.74296080e-02 4.73028794e-02 1.31967515e-01 7.27853179e-02
      2.17800602e-01 0. 2.24722810e-02 0. 7.92501960e-03 2.64840922e-03
      1.31967515e-01 1.44766182e-01 2.08126768e-01 2.96707004e-01 0.
      2.96707004e-01 0. 3.05591431e-02 1.02123292e-02 1.44766182e-01
      2.96707004e-01 1.26691446e-01 2.96707004e-01 0. 7.92016387e-02 0.
      2.32016250e-01 7.75359571e-02 2.96707004e-01 2.96707004e-01
      1.30193144e-01 2.96707004e-01 0. 1.25005037e-01 0. 5.69187105e-02
      1.90212503e-02 2.96707004e-01 1.40524089e-01 1.32469669e-01
      3.13073099e-01 0. 3.13073099e-01 0. 4.52990308e-02 1.51381418e-02
      1.40524089e-01 1.80087835e-01 5.16930409e-02 1.54684961e-01 0.
      3.13073099e-01 0. 6.88942000e-02 2.30232552e-02 1.80087835e-01
      3.13073099e-01 4.37223017e-02 1.30833596e-01 0. 1.21202759e-01 0.
      5.18602096e-02 1.73307732e-02 3.13073099e-01 3.13073099e-01
      2.34703608e-02 7.02320859e-02 0. 2.82616466e-01 0. 1.71353623e-01
      5.72634451e-02 3.13073099e-01 7.12120831e-02 1.03438340e-01
      3.09526265e-01 0. 3.88077021e-01 0. 8.30575675e-02 2.77564283e-02
      7.12120831e-02 1.57080591e-03 8.29525366e-02 2.48225436e-01 0.
      3.88077021e-01 0. 2.17920393e-02 7.28252763e-03 1.57080591e-03
      2.57387608e-01 4.06377204e-02 1.21603198e-01 0. 3.88077021e-01 0.
      2.07569838e-01 6.93663359e-02 2.57387608e-01 6.37132488e-03
      1.61598288e-02 4.83562909e-02 0. 3.88077021e-01 0. 2.76128706e-02
      9.22775920e-03 6.37132488e-03 3.80483717e-01 1.38208866e-01
      3.80483717e-01 0. 8.12171102e-02 0. 3.80483717e-01 1.73178330e-01
      3.80483717e-01 3.80483717e-01 7.53343776e-02 2.25429058e-01 0.
      1.92322712e-02 0. 6.90517202e-02 2.30759196e-02 3.80483717e-01
      4.63846959e-02 6.87238341e-03 2.05647927e-02 0. 0. 0.
      2.11006999e-02 7.05150142e-03 4.63846959e-02 4.62920368e-02
      4.17517731e-03 1.24937231e-02 0. 0. 0. 3.20350868e-03
      1.07055902e-03 4.62920368e-02 3.76605362e-01 6.88439060e-04
      2.06006435e-03 0. 1.45168295e-02 0. 1.90903358e-02 6.37965556e-03
      3.76605362e-01 3.76605362e-01 5.91828860e-02 1.77097365e-01 0.
      3.76605362e-01 0. 2.89213896e-01 9.66504067e-02 3.76605362e-01
      2.67269723e-02 0. 0. 0. 0. 0. 0. 0. 2.67269723e-02 8.89589116e-02
      4.13582139e-02 1.23759411e-01 0. 3.40438783e-01 0. 8.70571136e-02
      2.90930290e-02 8.89589116e-02 2.45754614e-01 1.15478434e-01
      3.45555037e-01 0. 3.70101064e-01 0. 2.74427116e-01 9.17089358e-02
      2.45754614e-01 2.04063747e-02 5.88372722e-02 1.76063448e-01 0.
      3.70101064e-01 0. 4.48048562e-02 1.49730351e-02 2.04063747e-02
      1.09280258e-01 9.57325026e-02 2.86467999e-01 0. 3.70101064e-01 0.
      1.06520407e-01 3.55973393e-02 1.09280258e-01 3.58455442e-02
      5.59351295e-02 1.67379215e-01 0. 2.20312044e-01 0. 2.36149728e-02
      7.89172947e-03 3.58455442e-02</_>
    <_>
      0. 0. 0. 0. 0. 0. 0. 0. 0. 0. 0. 0. 0. 0. 0. 0. 0. 0.
      3.73988837e-01 4.10488294e-03 1.22833271e-02 0. 3.73988837e-01 0.
      0. 0. 3.73988837e-01 3.73988837e-01 1.30469099e-01 3.73988837e-01
      0. 3.73988837e-01 0. 0. 0. 3.73988837e-01 0. 0. 0. 0. 0. 0. 0. 0.
      0. 0. 0. 0. 0. 0. 0. 0. 0. 0. 3.97239000e-01 1.20712847e-01
      3.61217499e-01 0. 0. 0. 0. 0. 3.97239000e-01 3.97239000e-01
      2.48973444e-01 3.97239000e-01 0. 0. 0. 0. 0. 3.97239000e-01
      9.92735010e-03 2.78366986e-03 8.32976960e-03 0. 0. 0.
      8.39062326e-04 2.80399894e-04 9.92735010e-03 4.66398783e-02
      8.22212920e-03 2.46036537e-02 0. 0. 0. 2.26990152e-02
      7.58561259e-03 4.66398783e-02 3.42270434e-01 1.72612935e-01
      3.42270434e-01 0. 0. 0. 1.25859333e-02 4.20599803e-03
      3.42270434e-01 3.42270434e-01 3.04601729e-01 3.42270434e-01 0.
      1.90221503e-01 0. 3.40485245e-01 1.13784194e-01 3.42270434e-01
      1.17753364e-01 2.07010414e-02 6.19451776e-02 0. 2.98732311e-01 0.
      2.72699469e-03 9.11316019e-04 1.17753364e-01 2.35712707e-01
      1.04394287e-01 2.98732311e-01 0. 2.33904317e-01 0. 5.99938817e-03
      2.00489513e-03 2.35712707e-01 2.04906672e-01 4.60125282e-02
      1.37686521e-01 0. 2.98732311e-01 0. 6.24070056e-02 2.08553616e-02
      2.04906672e-01 2.98732311e-01 1.82260200e-01 2.98732311e-01 0.
      2.98732311e-01 0. 1.37295425e-01 4.58817966e-02 2.98732311e-01
      2.75318682e-01 8.91219974e-02 2.66686141e-01 0. 9.28467140e-03 0.
      1.08122418e-03 3.61327024e-04 2.75318682e-01 2.79903769e-01
      1.36362225e-01 2.79903769e-01 0. 0. 0. 0. 0. 2.79903769e-01
      2.79903769e-01 1.25380486e-01 2.79903769e-01 0. 7.10386485e-02 0.
      2.47437134e-02 8.26892629e-03 2.79903769e-01 2.79903769e-01
      1.45917132e-01 2.79903769e-01 0. 1.23040052e-03 0. 0. 0.
      2.79903769e-01 2.97539115e-01 1.83774412e-01 2.97539115e-01 0. 0.
      0. 3.98008199e-03 1.33007369e-03 2.97539115e-01 2.97539115e-01
      2.21093059e-01 2.97539115e-01 0. 9.91775692e-02 0. 1.07672520e-01
      3.59822661e-02 2.97539115e-01 2.78240532e-01 1.32639036e-01
      2.97539115e-01 0. 0. 0. 0. 0. 2.78240532e-01 1.47306681e-01
      7.50394389e-02 2.24546582e-01 0. 6.61183847e-03 0. 0. 0.
      1.47306681e-01 3.17286044e-01 4.38019745e-02 1.31071731e-01 0.
      3.20600867e-01 0. 9.50774401e-02 3.17732431e-02 3.17286044e-01
      3.20600867e-01 1.01856075e-01 3.04791689e-01 0. 3.20600867e-01 0.
      2.09170356e-01 6.99011385e-02 3.20600867e-01 1.25570133e-01
      7.76432315e-03 2.32337285e-02 0. 9.39348638e-02 0. 1.29076336e-02
      4.31350479e-03 1.25570133e-01 2.61618525e-01 6.03891769e-03
      1.80706754e-02 0. 1.54805273e-01 0. 2.83967946e-02 9.48971044e-03
      2.61618525e-01 3.54038626e-01 1.42771214e-01 3.54038626e-01 0.
      3.54038626e-01 0. 9.34400037e-02 3.12260389e-02 3.54038626e-01
      3.54038626e-01 1.20377645e-01 3.54038626e-01 0. 1.30799385e-02 0.
      0. 0. 3.54038626e-01 1.57482699e-01 0. 0. 0. 1.56499028e-01 0.
      1.26853362e-02 4.23921691e-03 1.57482699e-01 0. 0. 0. 0.
      5.94542595e-03 0. 0. 0. 0. 5.22271097e-01 3.82268459e-01
      5.22271097e-01 0. 0. 0. 0. 0. 5.22271097e-01 6.25083819e-02
      4.75841165e-02 1.42389834e-01 0. 0. 0. 0. 0. 6.25083819e-02 0. 0.
      0. 0. 0. 0. 0. 0. 0. 0. 0. 0. 0. 0. 0. 0. 0. 0.</_>
    <_>
      3.61265689e-02 6.59968797e-03 1.97487082e-02 0. 8.94449360e-04 0.
      0. 0. 3.61265689e-02 1.01339802e-01 6.62551587e-03 1.98259968e-02
      0. 2.41973922e-02 0. 0. 0. 1.01339802e-01 2.05059692e-01
      3.08062792e-01 3.78148973e-01 0. 1.18842378e-01 0. 4.48551401e-03
      1.49897987e-03 2.05059692e-01 3.78148973e-01 2.41768733e-01
      3.78148973e-01 0. 3.78148973e-01 0. 6.72827065e-02 2.24846974e-02
      3.78148973e-01 6.07242882e-02 9.01819207e-04 2.69857654e-03 0.
      3.33705358e-02 0. 0. 0. 6.07242882e-02 0. 0. 0. 0. 1.26775249e-03
      0. 0. 0. 0. 3.77996206e-01 1.01061299e-01 3.02413523e-01 0.
      3.77996206e-01 0. 7.19841570e-02 2.40558423e-02 3.77996206e-01
      3.77996206e-01 1.50496826e-01 3.77996206e-01 0. 1.90162882e-02 0.
      0. 0. 3.77996206e-01 1.00911623e-02 0. 0. 0. 0. 0. 0. 0.
      1.00911623e-02 1.67487115e-02 0. 0. 0. 0. 0. 0. 0. 1.67487115e-02
      3.35805297e-01 2.26099119e-01 3.35805297e-01 0. 2.48351887e-01 0.
      1.05482578e-01 3.52504253e-02 3.35805297e-01 3.35805297e-01
      1.46588489e-01 3.35805297e-01 0. 3.35805297e-01 0. 2.32061654e-01
      7.75509328e-02 3.35805297e-01 1.23436190e-01 1.74391091e-01
      2.93901533e-01 0. 1.89318359e-01 0. 5.16593643e-02 1.72636900e-02
      1.23436190e-01 2.93901533e-01 9.90214869e-02 2.93901533e-01 0.
      2.93901533e-01 0. 7.83114657e-02 2.61703208e-02 2.93901533e-01
      2.78485566e-01 7.14237615e-02 2.13726595e-01 0. 1.83632031e-01 0.
      1.40056938e-01 4.68046889e-02 2.78485566e-01 2.93901533e-01
      2.67367586e-02 8.00064802e-02 0. 7.40090162e-02 0. 4.33678143e-02
      1.44927707e-02 2.93901533e-01 2.99265325e-01 4.35967520e-02
      1.30457938e-01 0. 1.66770309e-01 0. 3.95707935e-02 1.32238632e-02
      2.99265325e-01 2.99265325e-01 8.07344690e-02 2.41587564e-01 0.
      9.13640577e-03 0. 5.26442006e-02 1.75928120e-02 2.99265325e-01
      2.99265325e-01 4.15279120e-02 1.24267273e-01 0. 3.27261575e-02 0.
      1.88587978e-02 6.30227989e-03 2.99265325e-01 2.99265325e-01
      1.31785884e-01 2.99265325e-01 0. 1.01086251e-01 0. 1.59362584e-01
      5.32563142e-02 2.99265325e-01 2.96142042e-01 9.50299054e-02
      2.84364700e-01 0. 2.25470081e-01 0. 1.06020853e-01 3.54303755e-02
      2.96142042e-01 8.65332931e-02 5.56285866e-02 1.66461408e-01 0.
      2.96142042e-01 0. 7.66448230e-02 2.56133657e-02 8.65332931e-02
      1.77046895e-01 1.93495229e-01 2.96142042e-01 0. 2.96142042e-01 0.
      2.28288800e-01 7.62902945e-02 1.77046895e-01 1.16095869e-02
      1.31508172e-01 2.96142042e-01 0. 2.96142042e-01 0. 4.21136804e-02
      1.40736867e-02 1.16095869e-02 4.47877944e-01 6.88748956e-02
      2.06099972e-01 0. 1.69821218e-01 0. 3.02035451e-01 1.00935198e-01
      4.47877944e-01 4.47877944e-01 3.90907452e-02 1.16974421e-01 0.
      3.50603601e-03 0. 2.01356970e-02 6.72901375e-03 4.47877944e-01 0.
      0. 0. 0. 0. 0. 0. 0. 0. 0. 0. 0. 0. 0. 0. 0. 0. 0. 3.10527802e-01
      2.73243021e-02 8.17646980e-02 0. 5.68541922e-02 0. 1.20144822e-02
      4.01503919e-03 3.10527802e-01 2.79240012e-01 3.17954540e-01
      3.17954540e-01 0. 3.17954540e-01 0. 3.17954540e-01 1.45766363e-01
      2.79240012e-01 0. 1.04230526e-03 3.11896298e-03 0. 2.58428138e-02
      0. 9.34459828e-03 3.12280818e-03 0. 1.16579764e-01 9.06935111e-02
      2.71389157e-01 0. 1.75174758e-01 0. 2.52797872e-01 8.44808295e-02
      1.16579764e-01 1.12740450e-01 3.53092402e-01 3.53092402e-01 0.
      3.53092402e-01 0. 2.78914869e-01 9.32086781e-02 1.12740450e-01
      1.21473977e-02 2.24292994e-01 3.53092402e-01 0. 3.53092402e-01 0.
      2.67928448e-02 8.95372033e-03 1.21473977e-02 9.92249101e-02
      1.17872737e-01 3.52720022e-01 0. 8.16989392e-02 0. 1.33876339e-01
      4.47392315e-02 9.92249101e-02 1.50643298e-02 4.90040109e-02
      1.46638662e-01 0. 2.85619237e-02 0. 5.08598564e-03 1.69965148e-03
      1.50643298e-02</_>
    <_>
      0. 0. 0. 0. 0. 0. 0. 0. 0. 0. 0. 0. 0. 0. 0. 0. 0. 0. 0. 0. 0. 0.
      0. 0. 0. 0. 0. 6.69394612e-01 9.69284326e-02 2.90045708e-01 0. 0.
      0. 0. 0. 6.69394612e-01 0. 0. 0. 0. 0. 0. 0. 0. 0. 1.88553352e-02
      5.76787535e-03 1.72596145e-02 0. 0. 0. 0. 0. 1.88553352e-02
      1.77647293e-01 8.56649578e-02 2.56341249e-01 0. 0. 0. 0. 0.
      1.77647293e-01 4.63185996e-01 4.63185996e-01 4.63185996e-01 0. 0.
      0. 0. 0. 4.63185996e-01 4.45928127e-02 1.98378395e-02
      5.93621619e-02 0. 5.64873917e-03 0. 9.19015799e-03 3.07118963e-03
      4.45928127e-02 8.27092752e-02 2.65115909e-02 7.93324932e-02 0.
      5.83633892e-02 0. 3.98240164e-02 1.33084869e-02 8.27092752e-02
      3.30426097e-01 3.08107108e-01 3.43987644e-01 0. 1.02209717e-01 0.
      3.98240164e-02 1.33084869e-02 3.30426097e-01 3.05969447e-01
      2.48734847e-01 3.43987644e-01 0. 3.43987644e-01 0. 1.72570750e-01
      5.76701164e-02 3.05969447e-01 1.32582039e-01 2.18022652e-02
      6.52404428e-02 0. 1.11448783e-02 0. 0. 0. 1.32582039e-01
      2.39348918e-01 7.87502602e-02 2.35649943e-01 0. 4.23395861e-04 0.
      0. 0. 2.39348918e-01 3.35107535e-01 8.29537138e-02 2.48228237e-01
      0. 1.67173177e-01 0. 2.76182711e-01 9.22956541e-02 3.35107535e-01
      3.35107535e-01 1.68442741e-01 3.35107535e-01 0. 6.35093823e-03 0.
      9.09323618e-02 3.03880777e-02 3.35107535e-01 1.82956204e-01
      9.16848183e-02 2.74354935e-01 0. 0. 0. 0. 0. 1.82956204e-01
      2.24860325e-01 2.03129932e-01 2.96526015e-01 0. 0. 0. 0. 0.
      2.24860325e-01 2.96526015e-01 1.56719431e-01 2.96526015e-01 0. 0.
      0. 0. 0. 2.96526015e-01 2.96526015e-01 2.52929747e-01
      2.96526015e-01 0. 0. 0. 0. 0. 2.96526015e-01 2.35851482e-01
      2.96114385e-01 3.31022888e-01 0. 5.13717793e-02 0. 9.37326718e-03
      3.13238101e-03 2.35851482e-01 1.30545303e-01 2.25178510e-01
      3.31022888e-01 0. 3.31022888e-01 0. 4.06174920e-02 1.35736521e-02
      1.30545303e-01 1.86613530e-01 2.57870883e-01 3.31022888e-01 0.
      2.98591610e-03 0. 0. 0. 1.86613530e-01 6.41640276e-02
      1.23088710e-01 3.31022888e-01 0. 3.12333964e-02 0. 0. 0.
      6.41640276e-02 3.57503861e-01 3.96474525e-02 1.18639857e-01 0.
      1.39600962e-01 0. 3.57503861e-01 1.59167320e-01 3.57503861e-01
      3.57503861e-01 1.04797117e-01 3.13592523e-01 0. 5.30346530e-03 0.
      1.83542758e-01 6.13369197e-02 3.57503861e-01 1.07215367e-01 0. 0.
      0. 0. 0. 7.18077868e-02 2.39969604e-02 1.07215367e-01
      2.42436618e-01 1.53708430e-02 4.59954292e-02 0. 0. 0.
      3.65709625e-02 1.22214044e-02 2.42436618e-01 3.66261780e-01
      2.09125221e-01 3.66261780e-01 0. 0. 0. 0. 0. 3.66261780e-01
      3.66261780e-01 2.73308367e-01 3.66261780e-01 0. 0. 0. 0. 0.
      3.66261780e-01 1.71463326e-01 2.83181611e-02 8.47387463e-02 0. 0.
      0. 0. 0. 1.71463326e-01 5.07838242e-02 1.04344143e-02
      3.12237479e-02 0. 0. 0. 0. 0. 5.07838242e-02 4.76193249e-01
      4.83870745e-01 4.83870745e-01 0. 0. 0. 0. 0. 4.76193249e-01
      7.56360888e-02 7.82755092e-02 2.34230191e-01 0. 0. 0. 0. 0.
      7.56360888e-02 1.83148626e-02 5.32288896e-03 1.59281138e-02 0. 0.
      0. 0. 0. 1.83148626e-02 0. 0. 0. 0. 0. 0. 0. 0. 0.</_>
    <_>
      9.16968957e-02 7.02669993e-02 2.10264847e-01 0. 1.48933262e-01 0.
      2.45732948e-01 8.21196586e-02 9.16968957e-02 1.01008207e-01
      2.17873342e-02 6.51957616e-02 0. 1.64068397e-02 0. 3.53130519e-01
      1.35920838e-01 1.01008207e-01 7.29264617e-02 6.49113655e-02
      1.94238827e-01 0. 3.21973801e-01 0. 3.53130519e-01 2.65230417e-01
      7.29264617e-02 1.78297728e-01 1.93132255e-02 5.77923171e-02 0.
      6.80594668e-02 0. 3.53130519e-01 3.53130519e-01 1.78297728e-01
      4.62863557e-02 0. 0. 0. 0. 0. 2.96165228e-01 9.89732146e-02
      4.62863557e-02 3.18529201e-03 0. 0. 0. 0. 0. 7.64934160e-03
      2.55627558e-03 3.18529201e-03 3.40958089e-01 0. 0. 0.
      2.62303621e-01 0. 4.02647346e-01 4.02647346e-01 3.40958089e-01
      1.62957162e-01 0. 0. 0. 1.68293849e-01 0. 4.02647346e-01
      1.58058286e-01 1.62957162e-01 0. 0. 0. 0. 0. 0. 0. 0. 0. 0. 0. 0.
      0. 0. 0. 0. 0. 0. 4.12924498e-01 0. 0. 0. 0. 0. 7.20352709e-01
      3.64538252e-01 4.12924498e-01 0. 0. 0. 0. 0. 0. 0. 0. 0.
      4.50334102e-02 4.60947584e-03 1.37932580e-02 0. 1.02847643e-01 0.
      4.19338703e-01 2.59588450e-01 4.50334102e-02 1.85776904e-01
      1.06372533e-03 3.18305939e-03 0. 6.84590936e-02 0. 4.19338703e-01
      4.19338703e-01 1.85776904e-01 2.42574569e-02 0. 0. 0. 0. 0.
      1.48790881e-01 4.97234277e-02 2.42574569e-02 8.32126215e-02 0. 0.
      0. 1.00897485e-02 0. 4.19338703e-01 3.11026454e-01 8.32126215e-02
      1.39888436e-01 0. 0. 0. 1.18512094e-01 0. 3.43448490e-01
      2.40447760e-01 1.39888436e-01 1.62264124e-01 0. 0. 0.
      7.12790191e-02 0. 3.43448490e-01 1.82934031e-01 1.62264124e-01
      1.01554304e-01 0. 0. 0. 1.85100809e-02 0. 3.43448490e-01
      2.78806835e-01 1.01554304e-01 2.61611819e-01 0. 0. 0.
      9.57433227e-03 0. 3.43448490e-01 2.94724911e-01 2.61611819e-01
      1.39550403e-01 0. 0. 0. 0. 0. 3.30115825e-01 1.35207251e-01
      1.39550403e-01 4.47064787e-02 0. 0. 0. 0. 0. 9.50006619e-02
      3.17475535e-02 4.47064787e-02 3.30115825e-01 0. 0. 0.
      4.95794341e-02 0. 3.30115825e-01 3.30115825e-01 3.30115825e-01
      2.34848663e-01 0. 0. 0. 3.30115825e-01 0. 3.30115825e-01
      2.23249286e-01 2.34848663e-01 0. 0. 0. 0. 0. 0. 1.57583971e-02
      5.26619283e-03 0. 1.43168494e-01 0. 0. 0. 0. 0. 6.89804733e-01
      6.89804733e-01 1.43168494e-01 0. 0. 0. 0. 0. 0. 0. 0. 0.
      9.54456627e-03 0. 0. 0. 0. 0. 0. 0. 9.54456627e-03 1.27987310e-01
      0. 0. 0. 0. 0. 3.77150744e-01 2.41461560e-01 1.27987310e-01
      3.77150744e-01 0. 0. 0. 0. 0. 3.77150744e-01 3.77150744e-01
      3.77150744e-01 1.64667368e-02 0. 0. 0. 0. 0. 3.83053385e-02
      1.28010036e-02 1.64667368e-02 1.28434196e-01 0. 0. 0. 0. 0.
      3.77150744e-01 1.28634110e-01 1.28434196e-01 2.77259409e-01
      5.47558907e-03 1.63850505e-02 0. 9.02866051e-02 0. 2.90892571e-01
      2.36241862e-01 2.77259409e-01 2.18085021e-01 2.37275511e-02
      7.10018873e-02 0. 2.90892571e-01 0. 2.90892571e-01 1.43226147e-01
      2.18085021e-01 1.83176413e-01 7.04004196e-03 2.10664924e-02 0.
      4.42506596e-02 0. 2.90892571e-01 1.18328877e-01 1.83176413e-01
      2.42971718e-01 3.05068512e-02 9.12881419e-02 0. 2.90892571e-01 0.
      1.46501631e-01 4.89583872e-02 2.42971718e-01</_>
    <_>
      0. 0. 0. 0. 0. 0. 0. 0. 0. 0. 0. 0. 0. 0. 0. 0. 0. 0.
      2.29555909e-02 0. 0. 0. 0. 0. 0. 0. 2.29555909e-02 6.36944771e-01
      1.28232703e-01 3.83719653e-01 0. 0. 0. 1.25485227e-01
      4.19349596e-02 6.36944771e-01 0. 0. 0. 0. 0. 0. 0. 0. 0. 0. 0. 0.
      0. 0. 0. 0. 0. 0. 3.97043616e-01 9.82331634e-02 2.93949932e-01 0.
      0. 0. 1.18387111e-01 3.95628922e-02 3.97043616e-01 4.11927998e-01
      2.24680632e-01 4.11927998e-01 0. 0. 0. 9.20788720e-02
      3.07711419e-02 4.11927998e-01 0. 0. 0. 0. 0. 0. 0. 0. 0. 0. 0. 0.
      0. 0. 0. 0. 0. 0. 3.98677200e-01 1.16306625e-01 3.48032475e-01 0.
      0. 0. 1.55879870e-01 5.20923212e-02 3.98677200e-01 3.98677200e-01
      1.59991048e-02 4.78752404e-02 0. 0. 0. 3.98677200e-01
      1.92575917e-01 3.98677200e-01 1.31317824e-01 1.95986610e-02
      5.86464629e-02 0. 8.03538486e-02 0. 5.85244782e-03 1.95579021e-03
      1.31317824e-01 3.24027985e-01 6.81221560e-02 2.03846782e-01 0.
      2.28766277e-02 0. 1.62207503e-02 5.42069180e-03 3.24027985e-01
      3.24027985e-01 4.60792370e-02 1.37886256e-01 0. 3.24027985e-01 0.
      8.77867192e-02 2.93368567e-02 3.24027985e-01 3.24027985e-01
      1.52940646e-01 3.24027985e-01 0. 9.52299908e-02 0. 5.04501425e-02
      1.68595873e-02 3.24027985e-01 2.68785805e-01 6.41592741e-02
      1.91988423e-01 0. 0. 0. 4.56235632e-02 1.52465943e-02
      2.68785805e-01 2.92944878e-01 9.57986265e-02 2.86665291e-01 0. 0.
      0. 3.54849920e-02 1.18584614e-02 2.92944878e-01 2.92944878e-01
      1.12350263e-01 2.92944878e-01 0. 0. 0. 3.54849920e-02
      1.18584614e-02 2.92944878e-01 2.92944878e-01 1.23020947e-01
      2.92944878e-01 0. 0. 0. 2.75994390e-02 9.22324881e-03
      2.92944878e-01 2.95754224e-01 6.79975376e-02 2.03473970e-01 0. 0.
      0. 7.93475434e-02 2.65165623e-02 2.95754224e-01 2.95754224e-01
      1.72324125e-02 5.15658818e-02 0. 6.84239790e-02 0. 2.95754224e-01
      1.07974090e-01 2.95754224e-01 2.95754224e-01 6.71897382e-02
      2.01057047e-01 0. 0. 0. 5.80893196e-02 1.94124449e-02
      2.95754224e-01 2.95754224e-01 2.67190132e-02 7.99534470e-02 0.
      8.79736915e-02 0. 2.57922679e-01 8.61932933e-02 2.95754224e-01
      3.92713040e-01 3.88130695e-02 1.16143256e-01 0. 3.74857217e-01 0.
      1.53011233e-01 5.11338003e-02 3.92713040e-01 3.92713040e-01
      1.55719995e-01 3.92713040e-01 0. 1.06357358e-01 0. 6.95505589e-02
      2.32426357e-02 3.92713040e-01 2.16200985e-02 0. 0. 0. 0. 0. 0. 0.
      2.16200985e-02 2.77972631e-02 0. 0. 0. 0. 0. 0. 0. 2.77972631e-02
      4.00540203e-01 1.75294071e-01 4.00540203e-01 0. 0. 0. 0. 0.
      4.00540203e-01 4.00540203e-01 1.27963036e-01 3.82914215e-01 0. 0.
      0. 0. 0. 4.00540203e-01 7.43437279e-03 0. 0. 0. 0. 0. 0. 0.
      7.43437279e-03 0. 0. 0. 0. 0. 0. 0. 0. 0. 4.37367111e-01
      1.11773178e-01 3.34468007e-01 0. 0. 0. 4.88514826e-02
      1.63253471e-02 4.37367111e-01 4.37367111e-01 5.98410890e-02
      1.79067373e-01 0. 1.34137020e-01 0. 2.11689770e-01 7.07431734e-02
      4.37367111e-01 0. 0. 0. 0. 0. 0. 0. 0. 0. 0. 0. 0. 0. 0. 0. 0. 0.
      0.</_>
    <_>
      0. 0. 0. 0. 0. 0. 0. 0. 0. 0. 0. 0. 0. 0. 0. 0. 0. 0.
      4.18848127e-01 1.36276275e-01 4.07789022e-01 0. 1.27703205e-01 0.
      5.15035354e-02 1.72116198e-02 4.18848127e-01 4.18848127e-01
      4.30994257e-02 1.28969431e-01 0. 8.51354748e-03 0. 2.53426790e-01
      8.46907869e-02 4.18848127e-01 0. 0. 0. 0. 0. 0. 0. 0. 0. 0. 0. 0.
      0. 0. 0. 0. 0. 0. 4.10246283e-01 0. 0. 0. 0. 0. 4.10246283e-01
      1.58822775e-01 4.10246283e-01 4.10246283e-01 0. 0. 0. 0. 0.
      3.40867937e-01 1.13912083e-01 4.10246283e-01 0. 0. 0. 0. 0. 0. 0.
      0. 0. 0. 0. 0. 0. 0. 0. 0. 0. 0. 4.30694669e-01 0. 0. 0. 0. 0.
      4.30694669e-01 1.48585305e-01 4.30694669e-01 4.16194797e-01 0. 0.
      0. 0. 0. 2.52168089e-01 8.42701495e-02 4.16194797e-01
      2.91687995e-01 7.60495439e-02 2.27568343e-01 0. 1.25516310e-01 0.
      2.21887112e-01 7.41509721e-02 2.91687995e-01 3.02289307e-01
      2.32021194e-02 6.94293305e-02 0. 8.36775545e-03 0. 2.45538250e-01
      8.20546746e-02 3.02289307e-01 2.03462884e-01 2.32021194e-02
      6.94293231e-02 0. 7.62548894e-02 0. 2.92431504e-01 9.77257192e-02
      2.03462884e-01 3.02289307e-01 6.65869564e-03 1.99252777e-02 0.
      5.08366013e-03 0. 2.53236473e-01 8.46273750e-02 3.02289307e-01
      3.09359998e-01 0. 0. 0. 0. 0. 1.95515886e-01 6.53379783e-02
      3.09359998e-01 3.09359998e-01 3.24137189e-04 9.69942135e-04 0. 0.
      0. 2.20520347e-01 7.36940652e-02 3.09359998e-01 3.09359998e-01 0.
      0. 0. 0. 0. 1.37816355e-01 4.60558794e-02 3.09359998e-01
      3.09359998e-01 4.86205751e-03 1.45491306e-02 0. 0. 0.
      3.09359998e-01 1.32928014e-01 3.09359998e-01 2.86788523e-01
      4.11239685e-03 1.23058604e-02 0. 1.76988393e-02 0. 1.96734548e-01
      6.57452494e-02 2.86788523e-01 2.13884413e-01 1.16456104e-02
      3.48481089e-02 0. 1.63584337e-01 0. 1.72412574e-01 5.76172546e-02
      2.13884413e-01 2.86788523e-01 4.19669114e-02 1.25581011e-01 0.
      3.85147855e-02 0. 2.86788523e-01 1.09746702e-01 2.86788523e-01
      2.86788523e-01 8.92349780e-02 2.67025083e-01 0. 2.86788523e-01 0.
      1.71431243e-01 5.72893210e-02 2.86788523e-01 3.53051633e-01 0. 0.
      0. 0. 0. 3.67204696e-01 1.22713655e-01 3.53051633e-01
      4.63028729e-01 0. 0. 0. 0. 0. 3.88044596e-01 1.29678026e-01
      4.63028729e-01 0. 0. 0. 0. 0. 0. 0. 0. 0. 0. 0. 0. 0. 0. 0. 0. 0.
      0. 4.20065224e-01 0. 0. 0. 0. 0. 1.64330214e-01 5.49164079e-02
      4.20065224e-01 4.20065224e-01 1.61801949e-02 4.84173149e-02 0. 0.
      0. 4.20065224e-01 2.82833695e-01 4.20065224e-01 0. 0. 0. 0. 0. 0.
      0. 0. 0. 2.13144533e-02 0. 0. 0. 0. 0. 0. 0. 2.13144533e-02
      3.65998566e-01 7.92799816e-02 2.37235978e-01 0. 3.05875037e-02 0.
      3.65998566e-01 1.24985099e-01 3.65998566e-01 3.65998566e-01
      1.54365510e-01 3.65998566e-01 0. 2.90366709e-01 0. 4.82093208e-02
      1.61107183e-02 3.65998566e-01 3.20793428e-02 0. 0. 0. 0. 0. 0. 0.
      3.20793428e-02 1.88044216e-02 0. 0. 0. 0. 0. 0. 0. 1.88044216e-02</_>
    <_>
      0. 0. 0. 0. 0. 0. 0. 0. 0. 0. 0. 0. 0. 0. 0. 0. 0. 0. 0. 0. 0. 0.
      0. 0. 0. 0. 0. 2.66513884e-01 2.91722536e-01 8.72941792e-01 0. 0.
      0. 0. 0. 2.66513884e-01 0. 0. 0. 0. 0. 0. 0. 0. 0. 3.93904559e-02
      2.59873290e-02 7.77636990e-02 0. 0. 0. 0. 0. 3.93904559e-02
      1.17349051e-01 1.05374239e-01 3.15318674e-01 0. 0. 0. 0. 0.
      1.17349051e-01 4.37744021e-01 4.81690943e-01 4.81690943e-01 0. 0.
      0. 0. 0. 4.37744021e-01 9.85751301e-02 2.34471876e-02
      7.01626614e-02 0. 0. 0. 2.22318992e-03 7.42951059e-04
      9.85751301e-02 1.73371270e-01 1.18264742e-02 3.53891850e-02 0.
      1.19226538e-02 0. 6.01435974e-02 2.00989377e-02 1.73371270e-01
      3.35013717e-01 2.86602467e-01 3.35013717e-01 0. 0. 0.
      9.63382237e-03 3.21945432e-03 3.35013717e-01 3.35013717e-01
      2.07188770e-01 3.35013717e-01 0. 1.78839788e-01 0. 2.60622293e-01
      8.70953873e-02 3.35013717e-01 8.61711334e-03 1.33551462e-02
      3.99635322e-02 0. 0. 0. 0. 0. 8.61711334e-03 1.14478111e-01
      1.18236192e-01 3.53806376e-01 0. 1.70755666e-03 0. 0. 0.
      1.14478111e-01 1.17194071e-01 1.83720648e-01 3.80352080e-01 0.
      1.93057448e-01 0. 0. 0. 1.17194071e-01 3.80352080e-01
      3.80352080e-01 3.80352080e-01 0. 8.40953141e-02 0. 0. 0.
      3.80352080e-01 1.18406408e-01 1.28086612e-01 3.26755494e-01 0.
      3.98735236e-03 0. 0. 0. 1.18406408e-01 1.92084491e-01
      2.77808696e-01 3.26755494e-01 0. 3.10127437e-03 0. 0. 0.
      1.92084491e-01 2.64087528e-01 2.42173046e-01 3.26755494e-01 0.
      9.83759910e-02 0. 0. 0. 2.64087528e-01 2.09216341e-01
      2.63869852e-01 3.26755494e-01 0. 9.61035937e-02 0. 0. 0.
      2.09216341e-01 3.16735238e-01 3.13903004e-01 3.16735238e-01 0. 0.
      0. 2.86722160e-03 9.58175224e-04 3.16735238e-01 3.16735238e-01
      2.09838673e-01 3.16735238e-01 0. 8.77554342e-02 0. 7.75664896e-02
      2.59213559e-02 3.16735238e-01 1.63503349e-01 1.84083372e-01
      3.16735238e-01 0. 9.40897595e-03 0. 0. 0. 1.63503349e-01
      9.85718146e-02 5.55762090e-02 1.66305229e-01 0. 0. 0. 0. 0.
      9.85718146e-02 1.63313657e-01 1.54997200e-01 3.04290801e-01 0.
      3.04290801e-01 0. 5.88177443e-02 1.96559075e-02 1.63313657e-01
      3.04290801e-01 3.04290801e-01 3.04290801e-01 0. 1.42495990e-01 0.
      2.67353393e-02 8.93450342e-03 3.04290801e-01 1.34758621e-01
      6.57197163e-02 1.96658343e-01 0. 2.68748283e-01 0. 7.56228119e-02
      2.52718814e-02 1.34758621e-01 1.79710254e-01 1.26454353e-01
      3.04290801e-01 0. 8.18812028e-02 0. 3.43740061e-02 1.14872186e-02
      1.79710254e-01 3.54793400e-01 3.54793400e-01 3.54793400e-01 0.
      2.00249881e-01 0. 0. 0. 3.54793400e-01 2.39150748e-01
      1.94959894e-01 3.54793400e-01 0. 2.08162397e-01 0. 0. 0.
      2.39150748e-01 1.20276690e-01 1.00461036e-01 3.00617784e-01 0.
      6.87913969e-03 0. 0. 0. 1.20276690e-01 2.38225162e-02
      7.62934564e-03 2.28299126e-02 0. 8.84460751e-03 0. 0. 0.
      2.38225162e-02 3.35399121e-01 5.83132923e-01 6.14303529e-01 0.
      2.22357258e-01 0. 0. 0. 3.35399121e-01 2.76728086e-02
      5.25101228e-03 1.57130305e-02 0. 0. 0. 0. 0. 2.76728086e-02 0. 0.
      0. 0. 1.48238186e-02 0. 0. 0. 0. 0. 0. 0. 0. 0. 0. 0. 0. 0.</_>
    <_>
      9.33417305e-03 3.90561926e-03 1.16870571e-02 0. 0. 0. 0. 0.
      9.33417305e-03 9.06215906e-02 1.15360320e-02 3.45200785e-02 0.
      8.75714794e-03 0. 1.41891278e-02 4.74175764e-03 9.06215906e-02
      4.63713966e-02 1.46777213e-01 3.75693351e-01 0. 2.70500630e-01 0.
      0. 0. 4.63713966e-02 3.75693351e-01 3.50385547e-01 3.75693351e-01
      0. 3.75693351e-01 0. 2.12836906e-01 7.11263642e-02 3.75693351e-01
      2.27321163e-02 1.38041470e-02 4.13071141e-02 0. 9.84186959e-03 0.
      5.64518757e-03 1.88652263e-03 2.27321163e-02 4.68375683e-02
      1.56335264e-01 3.87708724e-01 0. 3.38927656e-02 0. 8.14821105e-03
      2.72299536e-03 4.68375683e-02 1.19946197e-01 1.32635608e-01
      3.87708724e-01 0. 3.87708724e-01 0. 8.46778080e-02 2.82978360e-02
      1.19946197e-01 5.02411798e-02 3.87708724e-01 3.87708724e-01 0.
      3.87708724e-01 0. 3.93232666e-02 1.31411748e-02 5.02411798e-02
      1.31592721e-01 1.33855850e-01 3.44192296e-01 0. 1.09212048e-01 0.
      1.19031221e-01 3.97781581e-02 1.31592721e-01 9.09591615e-02
      3.99552695e-02 1.19561151e-01 0. 2.30566829e-01 0. 1.92268550e-01
      6.42527714e-02 9.09591615e-02 9.33479071e-02 3.44192296e-01
      3.44192296e-01 0. 3.44192296e-01 0. 1.27845287e-01 4.27237153e-02
      9.33479071e-02 4.50668857e-02 1.35927841e-01 3.44192296e-01 0.
      3.44192296e-01 0. 1.36428803e-01 4.55921367e-02 4.50668857e-02
      5.97488834e-03 8.00757334e-02 2.39616320e-01 0. 2.62194246e-01 0.
      0. 0. 5.97488834e-03 6.51026964e-02 1.89382017e-01 3.09104264e-01
      0. 3.09104264e-01 0. 3.57917659e-02 1.19609786e-02 6.51026964e-02
      5.80101162e-02 9.85207409e-02 2.94810802e-01 0. 3.09104264e-01 0.
      7.08018541e-02 2.36607958e-02 5.80101162e-02 3.09104264e-01
      1.97882712e-01 3.09104264e-01 0. 3.09104264e-01 0. 3.79508212e-02
      1.26825292e-02 3.09104264e-01 3.35977711e-02 1.14469819e-01
      3.06940675e-01 0. 3.06940675e-01 0. 3.36477086e-02 1.12444740e-02
      3.35977711e-02 2.70072203e-02 2.42152020e-01 3.06940675e-01 0.
      3.06940675e-01 0. 4.13447581e-02 1.38166975e-02 2.70072203e-02
      2.12617740e-01 9.94163975e-02 2.97491342e-01 0. 3.06940675e-01 0.
      2.31516566e-02 7.73688778e-03 2.12617740e-01 1.00352608e-01
      1.49713889e-01 3.06940675e-01 0. 3.06940675e-01 0. 1.55498058e-01
      5.19647673e-02 1.00352608e-01 3.06795277e-02 3.48100990e-01
      3.48100990e-01 0. 3.48100990e-01 0. 4.57832329e-02 1.52999768e-02
      3.06795277e-02 4.86480072e-03 1.30149007e-01 3.48100990e-01 0.
      3.48100990e-01 0. 1.20914653e-02 4.04076558e-03 4.86480072e-03
      4.27625030e-02 2.20374495e-01 3.48100990e-01 0. 3.48100990e-01 0.
      1.69354036e-01 5.65951690e-02 4.27625030e-02 0. 5.64929955e-02
      1.69048533e-01 0. 1.04146704e-01 0. 1.40393088e-02 4.69169021e-03
      0. 2.09100127e-01 6.70707524e-02 2.00700641e-01 0. 3.25920492e-01
      0. 2.66796768e-01 8.91590193e-02 2.09100127e-01 3.25920492e-01
      9.22133848e-02 2.75937200e-01 0. 3.25920492e-01 0. 1.47905961e-01
      4.94276956e-02 3.25920492e-01 1.07834205e-01 1.91469619e-03
      5.72947832e-03 0. 2.58639995e-02 0. 1.00528121e-01 3.35948169e-02
      1.07834205e-01 3.25920492e-01 3.66319623e-03 1.09616695e-02 0.
      5.96861495e-03 0. 5.78012839e-02 1.93162225e-02 3.25920492e-01
      3.07174206e-01 6.81938827e-02 2.04061940e-01 0. 1.94281310e-01 0.
      7.79309273e-02 2.60432065e-02 3.07174206e-01 1.79221779e-01
      8.64377022e-02 2.58654445e-01 0. 3.07174206e-01 0. 3.07174206e-01
      1.91446960e-01 1.79221779e-01 2.02991262e-01 1.67289712e-02
      5.00594638e-02 0. 3.17302532e-02 0. 4.75277156e-02 1.58829670e-02
      2.02991262e-01 1.06684938e-01 5.26731908e-02 1.57618269e-01 0.
      3.07174206e-01 0. 3.07174206e-01 1.60136923e-01 1.06684938e-01
      3.23121622e-02 8.83711204e-02 2.64440060e-01 0. 3.54894996e-01 0.
      3.54894996e-01 2.45771825e-01 3.23121622e-02 0. 1.62449144e-02
      4.86109778e-02 0. 1.59096137e-01 0. 1.17661819e-01 3.93205173e-02
      0. 9.44082141e-02 1.25369564e-01 3.54894996e-01 0. 3.54894996e-01
      0. 3.54894996e-01 2.31113642e-01 9.44082141e-02 1.36851650e-02
      4.68507968e-02 1.40195444e-01 0. 2.32325509e-01 0. 1.34084657e-01
      4.48087454e-02 1.36851650e-02</_>
    <_>
      5.06816320e-02 4.61659878e-02 1.38145715e-01 0. 8.63132179e-02 0.
      3.04299407e-02 1.01691522e-02 5.06816320e-02 8.41183662e-02
      4.23422754e-02 1.26703724e-01 0. 1.80554703e-01 0. 6.69458658e-02
      2.23721322e-02 8.41183662e-02 6.51620999e-02 2.62198776e-01
      4.22207028e-01 0. 4.22207028e-01 0. 6.69458658e-02 2.23721322e-02
      6.51620999e-02 1.08152196e-01 2.20462441e-01 4.22207028e-01 0.
      4.22207028e-01 0. 1.47280917e-01 4.92186956e-02 1.08152196e-01
      1.33544086e-02 1.92284118e-02 5.75385205e-02 0. 5.11192419e-02 0.
      1.29628787e-02 4.33196640e-03 1.33544086e-02 9.49817076e-02
      1.51479378e-01 3.98223311e-01 0. 7.20644835e-03 0. 1.90907829e-02
      6.37980457e-03 9.49817076e-02 1.71699543e-02 1.88790619e-01
      3.98223311e-01 0. 3.98223311e-01 0. 2.85183340e-02 9.53032635e-03
      1.71699543e-02 1.38526186e-01 3.98223311e-01 3.98223311e-01 0.
      2.70212322e-01 0. 7.52801895e-02 2.51573678e-02 1.38526186e-01
      1.41829535e-01 1.06689908e-01 3.13090682e-01 0. 4.65397444e-03 0.
      2.36855224e-01 7.91528523e-02 1.41829535e-01 5.57977259e-02
      1.87783707e-02 5.61918356e-02 0. 4.00267430e-02 0. 3.13090682e-01
      1.24095403e-01 5.57977259e-02 1.83133885e-01 2.29138881e-01
      3.13090682e-01 0. 2.26181224e-01 0. 3.13090682e-01 1.43195674e-01
      1.83133885e-01 5.09614684e-02 3.27280983e-02 9.79347527e-02 0.
      3.13090682e-01 0. 3.13090682e-01 2.46732414e-01 5.09614684e-02
      4.40843031e-03 9.80886370e-02 2.93517679e-01 0. 3.64899129e-01 0.
      8.63996428e-03 2.88732420e-03 4.40843031e-03 8.75069946e-03
      1.26064613e-01 3.64899129e-01 0. 3.64899129e-01 0. 1.90079194e-02
      6.35211309e-03 8.75069946e-03 2.81834751e-02 2.13532448e-02
      6.38968721e-02 0. 3.64899129e-01 0. 1.45707980e-01 4.86931391e-02
      2.81834751e-02 1.21297099e-01 1.21749520e-01 3.64319921e-01 0.
      3.64899129e-01 0. 1.01917505e-01 3.40590701e-02 1.21297099e-01
      1.86168635e-03 1.67102441e-01 3.21018010e-01 0. 3.14487696e-01 0.
      3.88831855e-03 1.29940780e-03 1.86168635e-03 2.51622479e-02
      2.55108386e-01 3.21018010e-01 0. 3.21018010e-01 0. 3.52241099e-02
      1.17713083e-02 2.51622479e-02 4.62575890e-02 2.00914413e-01
      3.21018010e-01 0. 3.21018010e-01 0. 1.40489070e-02 4.69489815e-03
      4.62575890e-02 1.17860851e-03 1.89602286e-01 3.21018010e-01 0.
      3.21018010e-01 0. 5.34772547e-03 1.78712048e-03 1.17860851e-03
      4.67690192e-02 1.37287661e-01 3.50534886e-01 0. 3.50534886e-01 0.
      1.37518048e-01 4.59562093e-02 4.67690192e-02 1.07928505e-02
      4.68812212e-02 1.40286341e-01 0. 3.50534886e-01 0. 1.83150247e-01
      6.12056404e-02 1.07928505e-02 1.65082095e-03 1.29282907e-01
      3.50534886e-01 0. 3.50534886e-01 0. 1.66571792e-02 5.56655088e-03
      1.65082095e-03 3.80958722e-04 1.24711119e-01 3.50534886e-01 0.
      3.50534886e-01 0. 1.14871841e-02 3.83882155e-03 3.80958722e-04
      6.03953265e-02 7.43715605e-03 2.22547930e-02 0. 2.82528788e-01 0.
      2.82528788e-01 1.47613481e-01 6.03953265e-02 2.48575985e-01
      1.53648123e-01 2.82528788e-01 0. 2.82528788e-01 0. 2.65309006e-01
      8.86617899e-02 2.48575985e-01 8.68246481e-02 1.18823731e-02
      3.55565920e-02 0. 1.69289097e-01 0. 2.82528788e-01 1.05672583e-01
      8.68246481e-02 2.36170083e-01 1.37020051e-01 2.82528788e-01 0.
      1.21962093e-01 0. 2.35509023e-01 7.87031725e-02 2.36170083e-01
      1.55714422e-01 2.83916175e-01 3.49482656e-01 0. 3.49482656e-01 0.
      2.21277475e-02 7.39470916e-03 1.55714422e-01 1.84232164e-02
      1.82637870e-01 3.49482656e-01 0. 3.49482656e-01 0. 1.56779326e-02
      5.23930369e-03 1.84232164e-02 1.28247216e-01 1.40509158e-01
      3.49482656e-01 0. 1.02463998e-01 0. 1.29204635e-02 4.31780331e-03
      1.28247216e-01 9.16729942e-02 3.81175838e-02 1.14062294e-01 0.
      3.49482656e-01 0. 6.79377168e-02 2.27036476e-02 9.16729942e-02
      1.73394661e-02 1.06508054e-01 3.18712115e-01 0. 3.78139377e-01 0.
      2.03103591e-02 6.78738253e-03 1.73394661e-02 8.05518683e-03
      1.12609014e-01 3.36968958e-01 0. 3.78139377e-01 0. 4.68700565e-03
      1.56631903e-03 8.05518683e-03 1.58998162e-01 7.49456435e-02
      2.24265859e-01 0. 3.78139377e-01 0. 8.80115554e-02 2.94119902e-02
      1.58998162e-01 7.48760551e-02 7.57674575e-02 2.26725146e-01 0.
      3.78139377e-01 0. 2.03103591e-02 6.78738253e-03 7.48760551e-02</_>
    <_>
      1.20587036e-01 7.51135573e-02 2.24767596e-01 0. 4.25926536e-01 0.
      2.18411423e-02 7.29892496e-03 1.20587036e-01 1.98082373e-01
      5.43435328e-02 1.62616104e-01 0. 4.25926536e-01 0. 9.46449414e-02
      3.16286758e-02 1.98082373e-01 1.50637021e-02 2.94265300e-02
      8.80551487e-02 0. 4.25926536e-01 0. 4.60828170e-02 1.54000809e-02
      1.50637021e-02 2.48644520e-02 4.36036959e-02 1.30478755e-01 0.
      4.25926536e-01 0. 1.77160755e-01 5.92040159e-02 2.48644520e-02
      1.31730467e-01 1.79366190e-02 5.36732003e-02 0. 4.58353966e-01 0.
      1.17042005e-01 3.91133875e-02 1.31730467e-01 1.19399326e-02
      3.65244318e-03 1.09294606e-02 0. 0. 0. 0. 0. 1.19399326e-02
      1.59519333e-02 4.31130007e-02 1.29010499e-01 0. 4.58353966e-01 0.
      2.49918446e-01 8.35183561e-02 1.59519333e-02 1.51277959e-01
      2.33040527e-01 4.58353966e-01 0. 3.50824833e-01 0. 0. 0.
      1.51277959e-01 5.23048341e-02 7.67743820e-03 2.29737349e-02 0. 0.
      0. 9.34086367e-03 3.12155276e-03 5.23048341e-02 6.11622408e-02
      4.66427254e-03 1.39572294e-02 0. 0. 0. 2.75901221e-02
      9.22013447e-03 6.11622408e-02 3.11118126e-01 2.33152792e-01
      3.11118126e-01 0. 2.70274192e-01 0. 1.91759035e-01 6.40825033e-02
      3.11118126e-01 3.11118126e-01 8.45211223e-02 2.52918452e-01 0.
      3.11118126e-01 0. 3.11118126e-01 2.55405545e-01 3.11118126e-01 0.
      1.51560339e-03 4.53526387e-03 0. 4.05217022e-01 0. 1.33019298e-01
      4.44528088e-02 0. 4.99048503e-04 6.56761555e-03 1.96528118e-02 0.
      4.05217022e-01 0. 2.79252917e-01 9.33214650e-02 4.99048503e-04 0.
      0. 0. 0. 4.05217022e-01 0. 2.04055503e-01 6.81919381e-02 0.
      2.67380886e-02 1.20799318e-02 3.61476280e-02 0. 4.05217022e-01 0.
      4.05217022e-01 1.37704387e-01 2.67380886e-02 2.17873137e-03
      2.27185246e-02 6.79822639e-02 0. 3.31034511e-01 0. 1.30831063e-01
      4.37214449e-02 2.17873137e-03 3.63173224e-02 1.76936924e-01
      3.31034511e-01 0. 2.46969208e-01 0. 1.44756224e-03 4.83749900e-04
      3.63173224e-02 9.21966732e-02 1.05514243e-01 3.15737724e-01 0.
      3.31034511e-01 0. 2.66756177e-01 8.91452357e-02 9.21966732e-02
      7.90409371e-02 3.31034511e-01 3.31034511e-01 0. 3.31034511e-01 0.
      2.41504312e-02 8.07064865e-03 7.90409371e-02 1.19179577e-01
      1.50413305e-01 3.38679880e-01 0. 2.44917244e-01 0. 5.79063445e-02
      1.93512868e-02 1.19179577e-01 9.36338753e-02 3.22720818e-02
      9.65700969e-02 0. 3.38679880e-01 0. 3.38679880e-01 1.16938151e-01
      9.36338753e-02 5.70227094e-02 2.25338534e-01 3.38679880e-01 0.
      3.38679880e-01 0. 2.90344134e-02 9.70281288e-03 5.70227094e-02
      4.11676392e-02 6.30515441e-02 1.88674256e-01 0. 3.38679880e-01 0.
      2.13958666e-01 7.15012625e-02 4.11676392e-02 2.17969697e-02 0. 0.
      0. 3.13573807e-01 0. 3.13573807e-01 1.26835018e-01 2.17969697e-02
      1.98456049e-01 3.38020436e-02 1.01148412e-01 0. 3.13573807e-01 0.
      3.13573807e-01 2.25870207e-01 1.98456049e-01 4.16738465e-02 0. 0.
      0. 1.27802998e-01 0. 2.27299467e-01 7.59596899e-02 4.16738465e-02
      3.13573807e-01 3.67939174e-02 1.10101409e-01 0. 1.73951656e-01 0.
      3.13573807e-01 1.71440572e-01 3.13573807e-01 2.37439498e-01
      1.34850025e-01 2.83951700e-01 0. 2.55779058e-01 0. 2.11420476e-01
      7.06530735e-02 2.37439498e-01 1.29126340e-01 2.83951700e-01
      2.83951700e-01 0. 2.83951700e-01 0. 2.04163380e-02 6.82278117e-03
      1.29126340e-01 2.83951700e-01 9.75199342e-02 2.83951700e-01 0.
      2.95644626e-02 0. 1.18948810e-01 3.97506990e-02 2.83951700e-01
      1.15958400e-01 1.23272657e-01 2.83951700e-01 0. 6.37750253e-02 0.
      1.02613238e-03 3.42915417e-04 1.15958400e-01 1.75945498e-02
      1.51325941e-01 3.67652863e-01 0. 3.67652863e-01 0. 1.26219586e-01
      4.21804786e-02 1.75945498e-02 1.43753150e-02 8.60113800e-02
      2.57378846e-01 0. 3.67652863e-01 0. 2.46218368e-01 8.22820291e-02
      1.43753150e-02 1.80502702e-02 3.04314680e-02 9.10625383e-02 0.
      2.84966797e-01 0. 1.58210158e-01 5.28711937e-02 1.80502702e-02
      8.91663805e-02 2.71860920e-02 8.13511610e-02 0. 3.67652863e-01 0.
      3.43034267e-01 1.14636317e-01 8.91663805e-02</_>
    <_>
      2.55198311e-02 9.83439237e-02 2.94281512e-01 0. 1.69271633e-01 0.
      1.89084541e-02 6.31887419e-03 2.55198311e-02 7.53779635e-02
      1.36453122e-01 3.53098214e-01 0. 3.53098214e-01 0. 8.19366425e-02
      2.73817871e-02 7.53779635e-02 5.88919129e-03 1.76146105e-01
      3.53098214e-01 0. 3.53098214e-01 0. 8.59475229e-03 2.87221535e-03
      5.88919129e-03 2.14152820e-02 2.25147352e-01 3.53098214e-01 0.
      3.53098214e-01 0. 3.72439288e-02 1.24462657e-02 2.14152820e-02
      4.48554866e-02 5.05538583e-02 1.51276141e-01 0. 3.27367216e-01 0.
      5.83594888e-02 1.95027161e-02 4.48554866e-02 5.57648726e-02
      2.71574911e-02 8.12652558e-02 0. 0. 0. 2.29005590e-02
      7.65296351e-03 5.57648726e-02 6.75414801e-02 2.16139138e-01
      3.62080425e-01 0. 3.62080425e-01 0. 2.65270378e-02 8.86487029e-03
      6.75414801e-02 3.33629638e-01 3.62080425e-01 3.62080425e-01 0. 0.
      0. 1.85299143e-01 6.19237758e-02 3.33629638e-01 8.36265385e-02
      2.80772112e-02 8.40173960e-02 0. 0. 0. 8.72195736e-02
      2.91472543e-02 8.36265385e-02 2.77136955e-02 3.65214865e-03
      1.09285805e-02 0. 0. 0. 5.97523972e-02 1.99682023e-02
      2.77136955e-02 3.34761709e-01 2.41461813e-01 3.34761709e-01 0.
      1.18635856e-01 0. 3.34761709e-01 2.66065061e-01 3.34761709e-01
      2.01928601e-01 1.68667044e-02 5.04714288e-02 0. 3.34761709e-01 0.
      3.34761709e-01 2.46541709e-01 2.01928601e-01 1.70656554e-02
      8.39328393e-02 2.51158506e-01 0. 3.04446429e-01 0. 4.02181298e-02
      1.34402113e-02 1.70656554e-02 7.30672255e-02 1.37042627e-01
      3.04446429e-01 0. 3.04446429e-01 0. 2.94483993e-02 9.84114222e-03
      7.30672255e-02 7.93562829e-02 4.98609729e-02 1.49202719e-01 0.
      3.04446429e-01 0. 3.04446429e-01 1.20557636e-01 7.93562829e-02
      2.71707743e-01 1.86844274e-01 3.04446429e-01 0. 2.31351152e-01 0.
      2.11956695e-01 7.08323419e-02 2.71707743e-01 9.40402001e-02
      2.14070991e-01 3.59531939e-01 0. 9.92429107e-02 0. 3.75476200e-03
      1.25477556e-03 9.40402001e-02 1.36312187e-01 3.17915589e-01
      3.59531939e-01 0. 9.63462144e-03 0. 1.21402875e-01 4.05707918e-02
      1.36312187e-01 2.08039373e-01 3.00237507e-01 3.59531939e-01 0.
      2.54077371e-02 0. 1.28718941e-02 4.30156523e-03 2.08039373e-01
      6.80149719e-02 2.37805620e-01 3.59531939e-01 0. 6.08290061e-02 0.
      6.16847426e-02 2.06140094e-02 6.80149719e-02 1.17387809e-01
      1.09635808e-01 3.28071624e-01 0. 2.07379594e-01 0. 3.62660110e-01
      1.32746369e-01 1.17387809e-01 5.52154481e-02 3.46404710e-03
      1.03657236e-02 0. 3.62660110e-01 0. 3.62660110e-01 1.29688650e-01
      5.52154481e-02 1.42420484e-02 5.79344779e-02 1.73362017e-01 0.
      3.62660110e-01 0. 1.85533971e-01 6.20023422e-02 1.42420484e-02
      3.24801193e-03 1.52339851e-02 4.55858670e-02 0. 3.62660110e-01 0.
      1.73529148e-01 5.79904728e-02 3.24801193e-03 2.01526970e-01
      2.65672673e-02 7.94993490e-02 0. 2.06666261e-01 0. 3.49975437e-01
      2.73125082e-01 2.01526970e-01 3.49975437e-01 2.75063068e-01
      3.49975437e-01 0. 5.59288114e-02 0. 3.49975437e-01 1.77225843e-01
      3.49975437e-01 5.65315001e-02 4.09326935e-03 1.22486232e-02 0. 0.
      0. 7.43757635e-02 2.48551331e-02 5.65315001e-02 1.41725421e-01
      3.22737843e-02 9.65754613e-02 0. 0. 0. 6.76224679e-02
      2.25982983e-02 1.41725421e-01 3.67890954e-01 3.67890954e-01
      3.67890954e-01 0. 0. 0. 3.36169749e-02 1.12342248e-02
      3.67890954e-01 7.75370076e-02 1.86426550e-01 3.67890954e-01 0.
      3.22391421e-01 0. 8.69282242e-03 2.90499628e-03 7.75370076e-02
      6.90350533e-02 2.76726671e-02 8.28071833e-02 0. 0. 0.
      6.24403823e-03 2.08665314e-03 6.90350533e-02 1.46667985e-03
      2.45599691e-02 7.34925270e-02 0. 3.67890954e-01 0. 8.99772421e-02
      3.00688930e-02 1.46667985e-03 0. 6.05991110e-02 1.81335285e-01 0.
      4.13745850e-01 0. 1.17720012e-02 3.93400621e-03 0. 0.
      1.01591960e-01 3.04001600e-01 0. 4.13745850e-01 0. 9.15600080e-03
      3.05978255e-03 0. 3.39924917e-02 6.00334257e-02 1.79642543e-01 0.
      4.13745850e-01 0. 1.21849060e-01 4.07199189e-02 3.39924917e-02
      4.37046327e-02 1.01764880e-01 3.04519057e-01 0. 4.13745850e-01 0.
      9.47714895e-02 3.16710472e-02 4.37046327e-02</_>
    <_>
      1.15427069e-01 2.56532989e-02 7.67641589e-02 0. 1.15648583e-02 0.
      2.57746968e-02 8.61345045e-03 1.15427069e-01 1.17255226e-01
      8.41690879e-03 2.51865014e-02 0. 2.16503777e-02 0. 7.61307552e-02
      2.54415628e-02 1.17255226e-01 3.02289099e-01 2.41322666e-01
      3.02289099e-01 0. 3.02289099e-01 0. 1.11690350e-01 3.73249538e-02
      3.02289099e-01 3.02289099e-01 1.45353749e-01 3.02289099e-01 0.
      3.02289099e-01 0. 3.02289099e-01 1.10246778e-01 3.02289099e-01
      1.56724993e-02 2.16578264e-02 6.48082420e-02 0. 5.07999919e-02 0.
      2.13103518e-02 7.12154526e-03 1.56724993e-02 2.47014493e-01
      1.02486223e-01 3.06676656e-01 0. 1.02219492e-01 0. 0. 0.
      2.47014493e-01 3.30495946e-02 9.48647782e-02 2.83870786e-01 0.
      3.70353729e-01 0. 9.23448727e-02 3.08600310e-02 3.30495946e-02
      2.93014973e-01 2.54608631e-01 3.70353729e-01 0. 3.70353729e-01 0.
      3.96284312e-02 1.32431602e-02 2.93014973e-01 2.96370655e-01
      3.08381785e-02 9.22792405e-02 0. 5.07992804e-02 0. 9.24927816e-02
      3.09094619e-02 2.96370655e-01 1.24949835e-01 0. 0. 0.
      1.07346281e-01 0. 1.64542884e-01 5.49873412e-02 1.24949835e-01
      3.42817634e-01 8.37434679e-02 2.50591725e-01 0. 3.42817634e-01 0.
      2.14351669e-01 7.16326311e-02 3.42817634e-01 1.47082716e-01
      5.98459411e-03 1.79081876e-02 0. 3.42817634e-01 0. 2.87511081e-01
      9.60811898e-02 1.47082716e-01 4.31044772e-02 1.21496201e-01
      3.14946502e-01 0. 3.14946502e-01 0. 1.17640600e-01 3.93134654e-02
      4.31044772e-02 4.36165892e-02 1.12366833e-01 3.14946502e-01 0.
      3.14946502e-01 0. 1.40022248e-01 4.67929803e-02 4.36165892e-02
      2.99628824e-02 3.76414880e-02 1.12637617e-01 0. 3.14946502e-01 0.
      3.14946502e-01 2.15163797e-01 2.99628824e-02 1.46178871e-01
      4.89778221e-02 1.46560341e-01 0. 2.02065334e-01 0. 3.14946502e-01
      2.46544003e-01 1.46178871e-01 4.52423654e-03 3.93503942e-02
      1.17751226e-01 0. 4.33034331e-01 0. 3.37925218e-02 1.12928674e-02
      4.52423654e-03 3.65642682e-02 6.31165951e-02 1.88868359e-01 0.
      4.33034331e-01 0. 2.27505062e-02 7.60283880e-03 3.65642682e-02
      1.77585661e-01 1.85640175e-02 5.55505082e-02 0. 4.33034331e-01 0.
      2.66407192e-01 8.90286118e-02 1.77585661e-01 1.20853633e-01
      3.23229209e-02 9.67221633e-02 0. 4.33034331e-01 0. 2.93438267e-02
      9.80619248e-03 1.20853633e-01 6.04798533e-02 5.11524752e-02
      1.53067335e-01 0. 4.53624815e-01 0. 6.88123032e-02 2.29959078e-02
      6.04798533e-02 2.00801548e-02 1.46644786e-02 4.38815989e-02 0.
      4.53624815e-01 0. 5.38667478e-02 1.80013403e-02 2.00801548e-02
      6.90936893e-02 7.88406804e-02 2.35920921e-01 0. 4.53624815e-01 0.
      3.54544818e-03 1.18482963e-03 6.90936893e-02 1.46622155e-02
      7.48030171e-02 2.23838985e-01 0. 4.53624815e-01 0. 1.61156734e-03
      5.38558874e-04 1.46622155e-02 1.04232080e-01 2.69020768e-03
      8.05012789e-03 0. 1.52365908e-01 0. 3.43407482e-01 2.45992154e-01
      1.04232080e-01 3.43407482e-01 3.45883821e-03 1.03501640e-02 0.
      3.46189477e-02 0. 3.43407482e-01 3.43407482e-01 3.43407482e-01
      4.78356853e-02 0. 0. 0. 0. 0. 1.23681016e-01 4.13321257e-02
      4.78356853e-02 3.04611355e-01 0. 0. 0. 0. 0. 2.89113939e-01
      9.66170207e-02 3.04611355e-01 2.78400004e-01 1.60611160e-02
      4.80608046e-02 0. 2.12762564e-01 0. 2.78400004e-01 1.17020465e-01
      2.78400004e-01 2.78400004e-01 3.53248827e-02 1.05705239e-01 0.
      2.78400004e-01 0. 2.04108208e-01 6.82095140e-02 2.78400004e-01
      2.78400004e-01 3.62805300e-03 1.08564766e-02 0. 1.17331455e-02 0.
      1.18244506e-01 3.95153090e-02 2.78400004e-01 2.78400004e-01
      1.83669887e-02 5.49609810e-02 0. 8.44530985e-02 0. 2.60754675e-01
      8.71398300e-02 2.78400004e-01 1.79303393e-01 1.69176742e-01
      2.95570552e-01 0. 2.95570552e-01 0. 1.77415445e-01 5.92892729e-02
      1.79303393e-01 2.32540071e-02 1.89013049e-01 2.95570552e-01 0.
      2.95570552e-01 0. 1.45838838e-02 4.87368973e-03 2.32540071e-02
      2.32298970e-01 9.26780105e-02 2.77327925e-01 0. 2.95570552e-01 0.
      2.95570552e-01 1.05579242e-01 2.32298970e-01 4.05731313e-02
      7.48605728e-02 2.24011421e-01 0. 2.07664877e-01 0. 3.20845395e-02
      1.07221184e-02 4.05731313e-02</_>
    <_>
      3.75185274e-02 3.92798409e-02 1.17539801e-01 0. 1.46217614e-01 0.
      0. 0. 3.75185274e-02 8.25407431e-02 5.12722619e-02 1.53425589e-01
      0. 3.28760117e-01 0. 0. 0. 8.25407431e-02 3.83887775e-02
      1.17375001e-01 3.51229399e-01 0. 4.32542413e-01 0. 7.93724135e-02
      2.65249070e-02 3.83887775e-02 1.02434464e-01 1.90997735e-01
      4.32542413e-01 0. 4.32542413e-01 0. 1.95327699e-01 6.52751178e-02
      1.02434464e-01 6.39481843e-02 4.46699336e-02 1.33668959e-01 0.
      9.72313732e-02 0. 7.71283172e-03 2.57749273e-03 6.39481843e-02
      1.26843780e-01 4.96993400e-02 1.48718804e-01 0. 1.58669576e-02 0.
      1.91964760e-01 6.41512424e-02 1.26843780e-01 1.26100153e-01
      2.35879898e-01 3.32756370e-01 0. 3.32756370e-01 0. 8.93982500e-02
      2.98753437e-02 1.26100153e-01 2.55329937e-01 1.94871396e-01
      3.32756370e-01 0. 3.32756370e-01 0. 3.32756370e-01 2.06900463e-01
      2.55329937e-01 8.75834152e-02 1.53129064e-02 4.58218828e-02 0.
      1.40439272e-02 0. 3.71605963e-01 1.24184184e-01 8.75834152e-02 0.
      0. 0. 0. 6.38360344e-03 0. 2.48860419e-02 8.31647962e-03 0.
      1.70256168e-01 4.59205322e-02 1.37411490e-01 0. 4.30407196e-01 0.
      4.30407196e-01 4.30407196e-01 1.70256168e-01 0. 0. 0. 0.
      3.31042260e-01 0. 2.67051011e-01 8.92437771e-02 0. 3.26628573e-02
      3.03314272e-02 9.07628462e-02 0. 3.07521582e-01 0. 2.27163613e-01
      7.59142488e-02 3.26628573e-02 1.78599820e-01 1.21669471e-01
      3.07521582e-01 0. 3.07521582e-01 0. 3.07521582e-01 1.56551212e-01
      1.78599820e-01 5.98643161e-02 0. 0. 0. 1.66665286e-01 0.
      1.94760740e-01 6.50857687e-02 5.98643161e-02 3.07521582e-01
      5.90990335e-02 1.76846609e-01 0. 1.85970888e-01 0. 3.07521582e-01
      1.29266456e-01 3.07521582e-01 9.23319906e-02 1.70430243e-01
      3.30354065e-01 0. 3.30354065e-01 0. 1.06877282e-01 3.57165374e-02
      9.23319906e-02 5.08279502e-02 1.20666996e-01 3.30354065e-01 0.
      3.30354065e-01 0. 1.67295679e-01 5.59073240e-02 5.08279502e-02
      1.53109953e-01 1.01480134e-01 3.03666949e-01 0. 2.49781758e-01 0.
      6.98535219e-02 2.33438555e-02 1.53109953e-01 1.01405540e-02
      1.21497557e-01 3.30354065e-01 0. 3.30354065e-01 0. 8.50203261e-03
      2.84123281e-03 1.01405540e-02 2.43277773e-02 4.36006337e-02
      1.30469680e-01 0. 4.05505180e-01 0. 3.72021824e-01 1.24323189e-01
      2.43277773e-02 0. 1.04045607e-02 3.11344098e-02 0. 3.75390828e-01
      0. 1.00772180e-01 3.36762965e-02 0. 0. 1.55891135e-01
      4.05505180e-01 0. 4.05505180e-01 0. 2.72447020e-02 9.10470262e-03
      0. 0. 4.30570170e-02 1.28843009e-01 0. 3.62867087e-01 0.
      1.13422014e-02 3.79036460e-03 0. 1.85746625e-01 0. 0. 0.
      1.01964414e-01 0. 2.68072575e-01 8.95853788e-02 1.85746625e-01
      4.81259733e-01 9.17991698e-02 2.74698138e-01 0. 1.02057002e-01 0.
      4.81259733e-01 2.16263309e-01 4.81259733e-01 0. 0. 0. 0. 0. 0. 0.
      0. 0. 0. 0. 0. 0. 0. 0. 0. 0. 0. 5.52937016e-02 3.33426669e-02
      9.97737497e-02 0. 2.84371883e-01 0. 1.18214786e-02 3.95054044e-03
      5.52937016e-02 4.40054480e-03 1.15214840e-01 3.44766110e-01 0.
      4.34219897e-01 0. 0. 0. 4.40054480e-03 0. 2.66920887e-02
      7.98726603e-02 0. 4.34219897e-01 0. 1.19064627e-02 3.97894066e-03
      0. 0. 1.38747215e-01 4.15183991e-01 0. 4.34219897e-01 0.
      2.61942185e-02 8.75367038e-03 0. 0. 1.74361095e-01 4.73469496e-01
      0. 4.73469496e-01 0. 0. 0. 0. 0. 3.13122198e-02 9.36981216e-02 0.
      2.12465569e-01 0. 0. 0. 0. 0. 1.51261985e-01 4.52633351e-01 0.
      4.73469496e-01 0. 1.09857414e-02 3.67125124e-03 0. 0.
      5.74693177e-03 1.71970110e-02 0. 9.60602686e-02 0. 0. 0. 0.</_>
    <_>
      7.65274018e-02 5.08037545e-02 1.52023613e-01 0. 3.69329274e-01 0.
      0. 0. 7.65274018e-02 2.77773231e-01 8.34302828e-02 2.49654680e-01
      0. 3.69329274e-01 0. 6.59347028e-02 2.20342167e-02 2.77773231e-01
      9.72915441e-03 7.57266730e-02 2.26602256e-01 0. 3.69329274e-01 0.
      4.06422056e-02 1.35819465e-02 9.72915441e-03 3.72870639e-02
      1.09906100e-01 3.28880399e-01 0. 3.69329274e-01 0. 4.94721904e-02
      1.65327527e-02 3.72870639e-02 2.75971115e-01 8.69511664e-02
      2.60191023e-01 0. 4.19866532e-01 0. 1.49865374e-01 5.00823744e-02
      2.75971115e-01 4.36944468e-03 6.17393805e-03 1.84747688e-02 0.
      1.18534274e-01 0. 9.99102555e-03 3.33882496e-03 4.36944468e-03
      3.55696641e-02 1.21131226e-01 3.62470806e-01 0. 4.19866532e-01 0.
      5.70224635e-02 1.90559067e-02 3.55696641e-02 5.99985793e-02
      1.49414599e-01 4.19866532e-01 0. 1.34469241e-01 0. 2.30562105e-03
      7.70498067e-04 5.99985793e-02 3.47684994e-02 6.35159202e-03
      1.90063138e-02 0. 0. 0. 9.12461895e-04 3.04928748e-04
      3.47684994e-02 9.75302383e-02 6.37644948e-03 1.90806966e-02 0.
      1.03753852e-02 0. 1.36869270e-02 4.57393052e-03 9.75302383e-02
      3.07325989e-01 2.82912850e-01 3.32163095e-01 0. 2.95736175e-02 0.
      1.36869270e-02 4.57393052e-03 3.07325989e-01 3.32163095e-01
      1.69945672e-01 3.32163095e-01 0. 3.32163095e-01 0. 3.32163095e-01
      1.14975780e-01 3.32163095e-01 0. 5.09677306e-02 1.52514338e-01 0.
      3.66442770e-01 0. 1.44069269e-01 4.81455363e-02 0. 1.43406645e-03
      7.89899006e-02 2.36367673e-01 0. 3.66442770e-01 0. 2.18927875e-01
      7.31619000e-02 1.43406645e-03 2.17474084e-02 8.02819990e-03
      2.40233541e-02 0. 3.66442770e-01 0. 2.68014342e-01 8.95659029e-02
      2.17474084e-02 1.34441435e-01 2.15323213e-02 6.44328818e-02 0.
      3.66442770e-01 0. 3.66442770e-01 1.95970312e-01 1.34441435e-01
      7.33849546e-03 4.65070866e-02 1.39166847e-01 0. 2.87789434e-01 0.
      1.18601084e-01 3.96344028e-02 7.33849546e-03 3.99262160e-02
      1.50604486e-01 2.87789434e-01 0. 2.87789434e-01 0. 3.05779977e-03
      1.02186296e-03 3.99262160e-02 2.87789434e-01 4.96045686e-02
      1.48435384e-01 0. 2.87789434e-01 0. 2.87789434e-01 1.35331079e-01
      2.87789434e-01 2.38749653e-01 1.68634102e-01 2.87789434e-01 0.
      2.87789434e-01 0. 5.46114519e-02 1.82502065e-02 2.38749653e-01
      1.15080208e-01 1.93187833e-01 3.10663015e-01 0. 1.64595038e-01 0.
      4.19780146e-03 1.40283175e-03 1.15080208e-01 1.50917619e-01
      1.53869510e-01 3.10663015e-01 0. 3.10663015e-01 0. 2.06780940e-01
      6.91025555e-02 1.50917619e-01 3.34522501e-02 1.78369850e-01
      3.10663015e-01 0. 3.10663015e-01 0. 6.65210932e-03 2.22302391e-03
      3.34522501e-02 4.34143422e-03 2.87253916e-01 3.10663015e-01 0.
      3.01330060e-01 0. 4.91919667e-02 1.64390914e-02 4.34143422e-03
      9.36807618e-02 0. 0. 0. 3.18704963e-01 0. 3.18704963e-01
      1.22552738e-01 9.36807618e-02 3.18704963e-01 0. 0. 0.
      3.18704963e-01 0. 3.18704963e-01 3.03887874e-01 3.18704963e-01
      4.19381186e-02 0. 0. 0. 2.94829365e-02 0. 7.05887005e-02
      2.35895626e-02 4.19381186e-02 2.80238658e-01 0. 0. 0.
      2.55804714e-02 0. 2.92038709e-01 9.75944474e-02 2.80238658e-01
      2.66816318e-01 3.05963233e-02 9.15556923e-02 0. 9.31020901e-02 0.
      2.66816318e-01 1.14085153e-01 2.66816318e-01 2.66816318e-01
      8.07294473e-02 2.41572738e-01 0. 2.66816318e-01 0. 1.90723181e-01
      6.37364835e-02 2.66816318e-01 2.39435762e-01 1.17470827e-02
      3.51517536e-02 0. 5.17973937e-02 0. 1.55899286e-01 5.20989336e-02
      2.39435762e-01 2.66816318e-01 2.84517426e-02 8.51384774e-02 0.
      2.66816318e-01 0. 2.44595453e-01 8.17397162e-02 2.66816318e-01
      7.99135938e-02 1.70050845e-01 3.20404977e-01 0. 3.20404977e-01 0.
      8.40946734e-02 2.81030331e-02 7.99135938e-02 6.14625448e-03
      2.20576718e-01 3.20404977e-01 0. 3.20404977e-01 0. 0. 0.
      6.14625448e-03 3.08991581e-01 6.67873994e-02 1.99853376e-01 0.
      3.20404977e-01 0. 1.44638747e-01 4.83358465e-02 3.08991581e-01
      5.41506186e-02 4.26258110e-02 1.27552688e-01 0. 3.20404977e-01 0.
      0. 0. 5.41506186e-02</_>
    <_>
      0. 0. 0. 0. 0. 0. 0. 0. 0. 0. 5.73773645e-02 1.71694323e-01 0.
      2.23912552e-01 0. 8.18298161e-02 2.73461547e-02 0. 1.18033089e-01
      1.46355003e-01 3.54235262e-01 0. 2.20440421e-02 0. 5.30438237e-02
      1.77263133e-02 1.18033089e-01 3.48634541e-01 2.88714051e-01
      3.54235262e-01 0. 3.54235262e-01 0. 3.54235262e-01 1.57586426e-01
      3.48634541e-01 5.36508113e-02 5.91890998e-02 1.77115723e-01 0.
      1.04257792e-01 0. 6.67021945e-02 2.22907458e-02 5.36508113e-02
      2.92097420e-01 9.82125774e-02 2.92097420e-01 0. 1.38770014e-01 0.
      1.43399045e-01 4.79215086e-02 2.92097420e-01 4.30327728e-02
      5.48361912e-02 1.64090246e-01 0. 2.92097420e-01 0. 2.92097420e-01
      1.04397960e-01 4.30327728e-02 2.54842073e-01 8.60956386e-02
      2.57630348e-01 0. 2.92097420e-01 0. 2.92097420e-01 2.08365798e-01
      2.54842073e-01 3.30756068e-01 1.96212903e-02 5.87142110e-02 0.
      1.19193926e-01 0. 2.79933453e-01 9.35489237e-02 3.30756068e-01
      7.76911303e-02 0. 0. 0. 1.91419914e-01 0. 2.87639707e-01
      9.61241871e-02 7.76911303e-02 2.11874068e-01 3.36115286e-02
      1.00578316e-01 0. 3.30756068e-01 0. 3.30756068e-01 1.34140894e-01
      2.11874068e-01 3.70010622e-02 1.86753627e-02 5.58837205e-02 0.
      3.30756068e-01 0. 2.65941203e-01 8.88729692e-02 3.70010622e-02
      5.03310002e-02 1.30037799e-01 3.23268473e-01 0. 8.71203095e-02 0.
      1.87799074e-02 6.27591601e-03 5.03310002e-02 1.14389837e-01
      1.79460406e-01 3.23268473e-01 0. 1.94566295e-01 0. 9.07657295e-02
      3.03323232e-02 1.14389837e-01 8.02257285e-02 3.05290848e-01
      3.23268473e-01 0. 3.23268473e-01 0. 5.66316843e-02 1.89253148e-02
      8.02257285e-02 2.06098258e-01 2.51396596e-01 3.23268473e-01 0.
      2.76119351e-01 0. 6.62100911e-02 2.21262500e-02 2.06098258e-01
      3.63336876e-02 3.51209827e-02 1.05095215e-01 0. 3.02980036e-01 0.
      2.14006007e-01 7.15171918e-02 3.63336876e-02 6.21179976e-02
      6.75875172e-02 2.02247187e-01 0. 3.23376358e-01 0. 3.23376358e-01
      1.63611948e-01 6.21179976e-02 1.58279926e-01 8.50920081e-02
      2.54627198e-01 0. 1.10306449e-01 0. 3.93802933e-02 1.31602241e-02
      1.58279926e-01 2.36495763e-01 2.96514601e-01 3.23376358e-01 0.
      3.09325993e-01 0. 1.11935370e-01 3.74069139e-02 2.36495763e-01
      2.57822964e-02 1.13833554e-01 3.39952201e-01 0. 3.39952201e-01 0.
      1.53958067e-01 5.14501333e-02 2.57822964e-02 8.61286884e-04
      8.98445323e-02 2.68848747e-01 0. 3.39952201e-01 0. 2.23287772e-02
      7.46189803e-03 8.61286884e-04 7.55000189e-02 3.03718954e-01
      3.39952201e-01 0. 3.26760590e-01 0. 3.36940587e-02 1.12599824e-02
      7.55000189e-02 5.33479615e-04 1.40623078e-01 3.39952201e-01 0.
      2.56447315e-01 0. 0. 0. 5.33479615e-04 2.06832886e-01
      1.44362956e-01 2.86430091e-01 0. 2.86430091e-01 0. 1.56955138e-01
      5.24517000e-02 2.06832886e-01 2.86430091e-01 9.33496132e-02
      2.79337138e-01 0. 1.04718588e-01 0. 7.11272806e-02 2.37694923e-02
      2.86430091e-01 2.86210090e-01 4.64727096e-02 1.39063895e-01 0.
      1.62550211e-01 0. 1.64139658e-01 5.48526943e-02 2.86210090e-01
      2.86430091e-01 4.85490337e-02 1.45277083e-01 0. 1.42440042e-02 0.
      4.64189313e-02 1.55124096e-02 2.86430091e-01 2.94691741e-01
      1.29714996e-01 2.94691741e-01 0. 2.93182558e-03 0. 1.94944057e-03
      6.51470502e-04 2.94691741e-01 2.94691741e-01 2.90719926e-01
      2.94691741e-01 0. 8.96081515e-03 0. 8.44757631e-03 2.82303849e-03
      2.94691741e-01 2.94691741e-01 7.61777833e-02 2.27952749e-01 0. 0.
      0. 0. 0. 2.94691741e-01 1.53072953e-01 9.82883126e-02
      2.94115961e-01 0. 0. 0. 0. 0. 1.53072953e-01 2.97555894e-01
      4.66356277e-01 4.66356277e-01 0. 1.19431607e-01 0. 9.67284571e-03
      3.23250331e-03 2.97555894e-01 5.22598112e-03 1.71432614e-01
      4.66356277e-01 0. 1.20443568e-01 0. 0. 0. 5.22598112e-03
      9.26347524e-02 9.50159431e-02 2.84323841e-01 0. 0. 0. 0. 0.
      9.26347524e-02 2.37544579e-03 6.63483795e-03 1.98539644e-02 0. 0.
      0. 0. 0. 2.37544579e-03</_>
    <_>
      0. 0. 0. 0. 0. 0. 0. 0. 0. 0. 0. 0. 0. 0. 0. 0. 0. 0.
      4.02141869e-01 1.19676724e-01 3.58117044e-01 0. 0. 0.
      4.02141869e-01 1.38154849e-01 4.02141869e-01 3.73389572e-01
      4.54653986e-03 1.36049287e-02 0. 0. 0. 2.51159757e-01
      8.39331746e-02 3.73389572e-01 0. 0. 0. 0. 0. 0. 0. 0. 0.
      8.34050681e-03 0. 0. 0. 0. 0. 0. 0. 8.34050681e-03 6.89969957e-02
      5.90889947e-03 1.76816136e-02 0. 0. 0. 0. 0. 6.89969957e-02
      2.73377478e-01 6.45784080e-01 6.45784080e-01 0. 0. 0. 0. 0.
      2.73377478e-01 1.68873556e-02 0. 0. 0. 0. 0. 0. 0. 1.68873556e-02
      2.17123125e-02 0. 0. 0. 0. 0. 0. 0. 2.17123125e-02 3.31666440e-01
      2.94714570e-01 3.31666440e-01 0. 2.39357486e-01 0. 1.01662382e-01
      3.39737833e-02 3.31666440e-01 3.31666440e-01 1.17929183e-01
      3.31666440e-01 0. 3.31666440e-01 0. 2.23657236e-01 7.47423172e-02
      3.31666440e-01 2.36456916e-01 3.11288703e-02 9.31490958e-02 0.
      4.89753410e-02 0. 2.34940186e-01 7.85129666e-02 2.36456916e-01
      2.79711276e-01 1.18259131e-03 3.53875034e-03 0. 0. 0.
      1.98721215e-01 6.64091706e-02 2.79711276e-01 3.04396242e-01
      2.42113397e-02 7.24492893e-02 0. 6.29682913e-02 0. 3.04396242e-01
      1.68123901e-01 3.04396242e-01 3.04396242e-01 9.19793150e-04
      2.75236112e-03 0. 0. 0. 3.04396242e-01 1.31611899e-01
      3.04396242e-01 2.39781797e-01 1.52486302e-02 4.56295647e-02 0. 0.
      0. 3.07206511e-02 1.02663031e-02 2.39781797e-01 2.13609427e-01
      1.66226700e-01 3.37170690e-01 0. 9.87582747e-03 0. 0. 0.
      2.13609427e-01 3.37170690e-01 4.69250530e-02 1.40417472e-01 0. 0.
      0. 4.77194712e-02 1.59470160e-02 3.37170690e-01 3.37170690e-01
      2.22176448e-01 3.37170690e-01 0. 5.80761582e-02 0. 0. 0.
      3.37170690e-01 1.50063291e-01 1.81974560e-01 3.46759409e-01 0.
      2.87100285e-01 0. 2.55557038e-02 8.54026712e-03 1.50063291e-01
      1.03653066e-01 5.29676639e-02 1.58498988e-01 0. 3.46759409e-01 0.
      5.62225394e-02 1.87885854e-02 1.03653066e-01 2.10598826e-01
      1.79148540e-01 3.46759409e-01 0. 3.46759409e-01 0. 1.70371332e-03
      5.69351134e-04 2.10598826e-01 6.30772412e-02 7.24956319e-02
      2.16934502e-01 0. 3.46759409e-01 0. 3.74816940e-03 1.25257240e-03
      6.30772412e-02 3.71486574e-01 0. 0. 0. 2.86860019e-02 0.
      4.07961339e-01 1.75212771e-01 3.71486574e-01 4.07961339e-01 0. 0.
      0. 0. 0. 4.07961339e-01 1.38487056e-01 4.07961339e-01
      9.82231181e-03 0. 0. 0. 0. 0. 0. 0. 9.82231181e-03 4.05968688e-02
      0. 0. 0. 0. 0. 0. 0. 4.05968688e-02 4.23498213e-01 6.53332099e-02
      1.95501804e-01 0. 0. 0. 3.42362560e-02 1.14411693e-02
      4.23498213e-01 4.23498213e-01 1.91935956e-01 4.23498213e-01 0.
      1.24091357e-01 0. 0. 0. 4.23498213e-01 3.52479815e-02 0. 0. 0. 0.
      0. 0. 0. 3.52479815e-02 1.37753086e-02 0. 0. 0. 1.10036125e-02 0.
      0. 0. 1.37753086e-02 3.31566125e-01 1.61072776e-01 4.00623381e-01
      0. 4.00623381e-01 0. 0. 0. 3.31566125e-01 1.88003823e-01
      1.32569149e-01 3.96697462e-01 0. 4.00623381e-01 0. 0. 0.
      1.88003823e-01 4.57867160e-02 2.00822810e-03 6.00938452e-03 0.
      6.94715306e-02 0. 0. 0. 4.57867160e-02 5.79526275e-02
      4.41810209e-03 1.32206455e-02 0. 8.41371715e-02 0. 0. 0.
      5.79526275e-02</_>
    <_>
      0. 0. 0. 0. 0. 0. 0. 0. 0. 0. 0. 0. 0. 0. 0. 0. 0. 0.
      3.88527602e-01 1.32813290e-01 3.88527602e-01 0. 4.48801480e-02 0.
      1.56779036e-01 5.23927994e-02 3.88527602e-01 3.88527602e-01
      2.30515469e-02 6.89787492e-02 0. 1.02136046e-01 0. 3.88527602e-01
      1.66423857e-01 3.88527602e-01 3.93610494e-03 2.11282633e-02
      6.32235780e-02 0. 1.64244518e-01 0. 2.25129561e-03 7.52345368e-04
      3.93610494e-03 2.33774185e-01 1.20980881e-01 3.62019509e-01 0.
      3.80807519e-01 0. 4.88092043e-02 1.63111873e-02 2.33774185e-01
      2.54170280e-02 5.66524118e-02 1.69524953e-01 0. 3.80807519e-01 0.
      6.95732385e-02 2.32501812e-02 2.54170280e-02 1.03161007e-01
      1.54764220e-01 3.80807519e-01 0. 3.80807519e-01 0. 1.97085023e-01
      6.58624768e-02 1.03161007e-01 2.77073383e-01 5.33196218e-02
      1.59552023e-01 0. 4.04593557e-01 0. 1.07604526e-01 3.59595418e-02
      2.77073383e-01 5.17592803e-02 0. 0. 0. 3.48323435e-01 0.
      4.73116823e-02 1.58107337e-02 5.17592803e-02 1.11485057e-01
      4.87435348e-02 1.45858690e-01 0. 4.04593557e-01 0. 2.87758440e-01
      9.61638764e-02 1.11485057e-01 1.81054156e-02 0. 0. 0.
      4.04593557e-01 0. 1.89135432e-01 6.32057488e-02 1.81054156e-02
      2.68779695e-01 5.84483333e-02 1.74899027e-01 0. 1.40243560e-01 0.
      6.94515109e-02 2.32094750e-02 2.68779695e-01 2.70417035e-01
      2.93837450e-02 8.79270732e-02 0. 1.16029739e-01 0. 2.70737678e-01
      9.04757828e-02 2.70417035e-01 2.83552498e-01 5.99569902e-02
      1.79413691e-01 0. 2.78030038e-01 0. 6.60838112e-02 2.20840760e-02
      2.83552498e-01 2.83552498e-01 7.11120218e-02 2.12793991e-01 0.
      1.16675377e-01 0. 1.90523684e-01 6.36696592e-02 2.83552498e-01
      1.38891235e-01 1.15321197e-01 2.84048587e-01 0. 1.15278691e-01 0.
      9.62126330e-02 3.21525820e-02 1.38891235e-01 1.50498822e-01
      1.71465367e-01 2.84048587e-01 0. 2.84048587e-01 0. 9.05276611e-02
      3.02528106e-02 1.50498822e-01 2.84048587e-01 1.74994484e-01
      2.84048587e-01 0. 4.70538326e-02 0. 6.88273683e-02 2.30008997e-02
      2.84048587e-01 2.42743477e-01 2.12126464e-01 2.84048587e-01 0.
      2.66207457e-01 0. 3.40532064e-02 1.13800094e-02 2.42743477e-01
      1.08890817e-01 4.94084172e-02 1.47848517e-01 0. 3.90218943e-01 0.
      2.77623653e-01 9.27770138e-02 1.08890817e-01 9.79378354e-03 0. 0.
      0. 3.90218943e-01 0. 2.19766870e-01 7.34422430e-02 9.79378354e-03
      1.23733729e-01 1.12897776e-01 3.37832510e-01 0. 3.90218943e-01 0.
      1.35916486e-01 4.54209596e-02 1.23733729e-01 8.73321481e-03
      3.20175104e-02 9.58084911e-02 0. 3.90218943e-01 0. 9.96891558e-02
      3.33143771e-02 8.73321481e-03 4.38438475e-01 7.00540841e-02
      2.09628403e-01 0. 2.30850965e-01 0. 8.19402933e-02 2.73830760e-02
      4.38438475e-01 4.38438475e-01 8.96255448e-02 2.68193722e-01 0.
      8.00470561e-02 0. 2.87418570e-02 9.60502494e-03 4.38438475e-01
      4.53158654e-02 3.84322111e-03 1.15003837e-02 0. 0. 0.
